{"format": "layers-model", "generatedBy": "keras v2.12.0", "convertedBy": "TensorFlow.js Converter v4.6.0", "modelTopology": {"keras_version": "2.12.0", "backend": "tensorflow", "model_config": {"class_name": "Functional", "config": {"name": "model_10", "trainable": true, "layers": [{"class_name": "InputLayer", "config": {"batch_input_shape": [null, 100], "dtype": "float32", "sparse": false, "ragged": false, "name": "y2"}, "name": "y2", "inbound_nodes": []}, {"class_name": "Dense", "config": {"name": "dense_10", "trainable": true, "dtype": "float32", "units": 40, "activation": "linear", "use_bias": true, "kernel_initializer": {"class_name": "Constant", "config": {"value": [[0.08377087861299515, -0.018446486443281174, 0.058263134211301804, 0.10990262776613235, -0.12912355363368988, -0.02671942673623562, -0.05836262181401253, 0.06342050433158875, -0.09405877441167831, -0.1767074167728424, -0.16359536349773407, 0.08002789318561554, -0.011289621703326702, -0.17369548976421356, 0.08962032943964005, -0.0024873027577996254, 0.030383076518774033, -0.057015519589185715, -0.03880088031291962, -0.030259402468800545, -0.1295146644115448, 0.23760707676410675, -0.17055314779281616, 0.149150550365448, -0.18203049898147583, 0.13771651685237885, -0.13959901034832, 0.4037940204143524, 0.019750189036130905, -0.05096837133169174, 0.0760108157992363, 0.0531475804746151, 0.11086615920066833, 0.024786535650491714, -0.1933937519788742, -0.21198393404483795, -0.0493515282869339, -0.1378825604915619, -0.13572406768798828, -0.07614881545305252], [-0.02875910885632038, 0.007829300127923489, -0.06997352838516235, -0.28250977396965027, 0.22325773537158966, 0.0769975408911705, -0.046986307948827744, 0.09168381989002228, 0.045140113681554794, 0.13522320985794067, -0.031171513721346855, 0.10187593102455139, -0.03204432874917984, -0.2173299938440323, 0.2620241641998291, 0.009013776667416096, 0.0518244206905365, 0.047809019684791565, 0.006071599666029215, -0.31193920969963074, -0.17048226296901703, 0.5211445093154907, -0.11127165704965591, 0.027539832517504692, -0.11237050592899323, 0.2376147359609604, -0.03941696509718895, 0.059739962220191956, 0.26532530784606934, 0.21841612458229065, 0.2869304120540619, 0.2860743999481201, -0.08455237746238708, -0.2476750910282135, -0.246893048286438, 0.05256608873605728, 0.2042146474123001, -0.0650201290845871, 0.19709782302379608, -0.15394726395606995], [-0.10462360829114914, 0.05045104771852493, -0.013753916136920452, -0.10040891170501709, 0.23404106497764587, 0.11985451728105545, 0.12403970211744308, 0.11102748662233353, 0.08206208795309067, -0.0019542784430086613, -0.07526845484972, -0.11339916288852692, 0.25829610228538513, -0.07799207419157028, -0.051392339169979095, 0.13055133819580078, -0.11795604974031448, -0.01393759623169899, -0.06007925793528557, -0.17481334507465363, 0.06722117215394974, 0.16444049775600433, -0.032959483563899994, -0.02476116269826889, -0.10179635137319565, 0.1624888777732849, -0.15177570283412933, -0.09879106283187866, -0.10233917832374573, -0.011857670731842518, 0.10747504234313965, 0.15129484236240387, -0.23260727524757385, -0.18236209452152252, -0.16212162375450134, 0.18683262169361115, 0.0503028966486454, -0.15259703993797302, -0.06976776570081711, -0.20578764379024506], [0.06799781322479248, -0.04107947647571564, -0.5253725647926331, -0.2562761902809143, 0.16406258940696716, -0.08678047358989716, -0.24635310471057892, 0.10793738067150116, 0.22060927748680115, 0.1843786984682083, -0.22858227789402008, 0.10146154463291168, -0.08079136908054352, -0.11307543516159058, 0.23138166964054108, -0.15295077860355377, 0.12345285713672638, -0.14943987131118774, -0.05800682678818703, 0.1500501185655594, -0.09281718730926514, 0.1489807367324829, -0.1706901490688324, -0.0687553659081459, -0.012149112299084663, -0.22152705490589142, 0.10742086172103882, -0.4444620609283447, -0.027993952855467796, 0.11475177854299545, 0.18680718541145325, -0.11659602075815201, 0.10115505009889603, 0.024028822779655457, -0.0435221828520298, -0.2207973748445511, 0.1169181689620018, 0.0757800042629242, -0.0809236615896225, 0.20363377034664154], [-0.11665693670511246, -0.08938868343830109, 0.21959517896175385, 0.07866624742746353, 0.05429846793413162, 0.059063345193862915, 0.13583648204803467, -0.14571857452392578, 0.19487547874450684, 0.10699077695608139, 0.10004542768001556, -0.33480873703956604, 0.04615151882171631, 0.17156006395816803, -0.15073354542255402, -0.14208708703517914, -0.26768410205841064, 0.09743554890155792, -0.09913581609725952, -0.01644202508032322, 0.09191156178712845, -0.29125872254371643, 0.17302700877189636, 0.07489881664514542, 0.04711577668786049, 0.13020849227905273, -0.11779393255710602, -0.14542324841022491, -0.03370523825287819, -0.18499916791915894, -0.16110026836395264, -0.023052949458360672, -0.2155115008354187, -0.1278996616601944, 0.001164930174127221, 0.1606425791978836, -0.18628326058387756, -0.05504888296127319, 0.09240498393774033, 0.04547477886080742], [-0.19603502750396729, 0.07406619936227798, 0.06772184371948242, 0.18754416704177856, -0.07103604823350906, 0.013633545488119125, 0.12169630825519562, -0.06306006759405136, -0.2664041519165039, -0.28437086939811707, 0.04261162877082825, -0.0038787475787103176, 0.011633086949586868, 0.004997226409614086, 0.018408460542559624, 0.21766608953475952, 0.08965440094470978, -0.03618758171796799, -0.04435719922184944, -0.10221824795007706, -0.09142746776342392, 0.1839212030172348, 0.2160017341375351, 0.1741923838853836, -0.07875249534845352, 0.14691147208213806, 0.09827464073896408, 0.3550975024700165, -0.06899689882993698, 0.020010769367218018, 0.08769512176513672, 0.05370662361383438, 0.2387615591287613, 0.1759263575077057, -0.1127968356013298, 0.06022367626428604, -0.1342400461435318, -0.1952793449163437, 0.19371481239795685, -0.0741797611117363], [-0.18587370216846466, 0.11453503370285034, -0.15195901691913605, 0.02350611798465252, 0.00873410515487194, -0.29324108362197876, -0.04730658978223801, 0.060734670609235764, -0.18039019405841827, -0.18214590847492218, -0.10786283016204834, -0.05063152313232422, -0.04346969351172447, 0.04214698448777199, 0.18526338040828705, -0.0036487849429249763, -0.06894195824861526, -0.30378222465515137, -0.2482895404100418, 0.15193916857242584, 0.08760866522789001, -0.11977511644363403, -0.051751766353845596, 0.07181864976882935, -0.08556661009788513, -0.16430826485157013, 0.16190290451049805, -0.16434991359710693, -0.1427491158246994, 0.038060400635004044, -0.00017081096302717924, -0.10634690523147583, 0.1123615950345993, 0.09276747703552246, 0.08048753440380096, -0.04569811746478081, -0.009487190283834934, 0.016249723732471466, -0.027595238760113716, 0.031306084245443344], [-0.008098703809082508, 0.11040022224187851, 0.40812864899635315, 0.49209049344062805, 0.15376915037631989, 0.168039932847023, 0.07600034028291702, -0.11153760552406311, 0.14468123018741608, -0.14775672554969788, -0.011470155790448189, -0.16528846323490143, -0.07530141621828079, 0.13365228474140167, -0.14304183423519135, 0.21163584291934967, -0.006795699242502451, -0.10524751245975494, 0.26542890071868896, -0.05707111954689026, 0.09058765321969986, -0.12251080572605133, 0.16297650337219238, -0.02169599011540413, 0.1288430541753769, 0.18458592891693115, 0.07133353501558304, 0.06584696471691132, -0.07007826864719391, 0.19197618961334229, 0.26407772302627563, -0.09586737304925919, 0.12946121394634247, -0.1060018241405487, 0.17011459171772003, -0.039998024702072144, -0.03019726648926735, 0.2541917562484741, -0.028281010687351227, 0.16449616849422455], [-0.2379741221666336, 0.14531153440475464, -0.1355350762605667, -0.3253991901874542, 0.02662881463766098, -0.34158411622047424, -0.07449426501989365, -0.05510830879211426, -0.12303151935338974, -0.2082575112581253, -0.24692842364311218, -0.23039288818836212, 0.001836165669374168, 0.09300975501537323, -0.16855689883232117, 0.0830608531832695, 0.1144605278968811, -0.2736767530441284, -0.1992284059524536, -0.11895082890987396, -0.042251959443092346, -0.023018918931484222, -0.09644103050231934, -0.06797632575035095, -0.10319161415100098, -0.14151479303836823, -0.011790825985372066, -0.10285510867834091, -0.16356736421585083, 0.09234053641557693, -0.0723033994436264, 0.04170737415552139, -0.06776350736618042, 0.07656248658895493, 0.06804049015045166, 0.15991054475307465, 0.022123249247670174, -0.17263522744178772, -0.029004115611314774, -0.03645718842744827], [-0.0969078540802002, -0.15570604801177979, 0.15850766003131866, -0.20346936583518982, 0.07375529408454895, 0.19184094667434692, 0.09529128670692444, -0.36017438769340515, 0.15154384076595306, 0.17342625558376312, 0.02370321936905384, -0.1989026665687561, -0.028666071593761444, -0.021577704697847366, -0.008240597322583199, 0.05616391822695732, -0.004445029888302088, 0.15945233404636383, 0.06981056183576584, -0.021676620468497276, -0.08551757037639618, -0.08976240456104279, -0.035570111125707626, -0.021937986835837364, 0.039572395384311676, 0.22533251345157623, -0.2106804996728897, -0.3989255726337433, -0.005671750754117966, -0.049488190561532974, 0.01590617187321186, 0.1638384759426117, -0.09995977580547333, -0.2666757106781006, 0.16627220809459686, -0.0038795594591647387, 0.03878364711999893, -0.023860516026616096, 0.06420008093118668, 0.15917520225048065], [-0.19948162138462067, 0.016495155170559883, 0.46238353848457336, 0.04377837851643562, -0.16088293492794037, -0.03388502076268196, -0.10862165689468384, 0.03824421763420105, -0.3650609850883484, -0.2305968552827835, 0.12225894629955292, 0.015162539668381214, 0.03189649060368538, -0.1980985552072525, -0.31671029329299927, 0.005393706727772951, -0.03029913641512394, -0.20835907757282257, -0.13228774070739746, -0.19288703799247742, 0.15029574930667877, 0.057521458715200424, 0.016164062544703484, 0.1323270946741104, 0.11495105177164078, -0.2188514769077301, -0.1958518624305725, 0.19222751259803772, -0.23379600048065186, 0.06987148523330688, -0.037907425314188004, -0.1741001158952713, 0.10754033178091049, 0.02382587641477585, -0.3112904131412506, -0.05306495353579521, -0.05868770554661751, -0.11714630573987961, -0.058692771941423416, -0.005005928222090006], [-0.012428252957761288, 0.09226907044649124, -0.36323148012161255, -0.24025672674179077, 0.0076953754760324955, -0.23010848462581635, -0.23118114471435547, 0.13209320604801178, -0.1804870218038559, -0.21795636415481567, 0.02025957778096199, 0.08341385424137115, -0.13255713880062103, -0.06641443818807602, -0.08346667885780334, -0.12389160692691803, 0.1586133986711502, -0.16746272146701813, 0.017504282295703888, 0.10437428951263428, -0.2421547770500183, 0.06971953809261322, 0.0495511069893837, 0.02220541052520275, -0.005516559351235628, -0.2451707124710083, 0.2096485197544098, -0.2533947229385376, -0.061838820576667786, 0.20606303215026855, 0.1839708834886551, -0.07699456065893173, 0.12890546023845673, 0.062210533767938614, 0.44781383872032166, -0.16585707664489746, -0.0727582797408104, -0.1451539695262909, 0.1353149265050888, 0.20968414843082428], [-0.07413375377655029, -0.16436174511909485, -0.17773748934268951, 0.12590837478637695, -0.1063518151640892, -0.005775203462690115, 0.07686474174261093, 0.17676116526126862, 0.023601684719324112, 0.039252784103155136, -0.14799420535564423, 0.1111089363694191, 0.06888652592897415, 0.016821816563606262, 0.05314195901155472, -0.29525795578956604, 0.19111260771751404, 0.11736482381820679, 0.09789107739925385, 0.12153682112693787, -0.0697827860713005, 0.05073149502277374, -0.05216330289840698, 0.011686436831951141, -0.17911483347415924, 0.13211065530776978, 0.06294553726911545, 0.06754329800605774, -0.0547913983464241, -0.06123923510313034, -0.10634858161211014, 0.259789377450943, -0.0060271755792200565, -0.05145146697759628, -0.08365602046251297, -0.06995440274477005, -0.003412578720599413, -0.04417896270751953, 0.1311599463224411, -0.08416470140218735], [-0.12159804254770279, 0.09865099936723709, 0.017988000065088272, 0.006142104975879192, 0.02641359344124794, -0.18159933388233185, 0.14593970775604248, -0.12053103744983673, -0.0944405123591423, -0.12179645895957947, -0.02357443980872631, -0.11920864880084991, -0.024085547775030136, 0.05077992007136345, 0.12066077440977097, 0.14966312050819397, -0.006490578409284353, -0.26803550124168396, -0.14421629905700684, 0.060512423515319824, 0.10785124450922012, -0.1534806340932846, 0.006667325273156166, 0.028254112228751183, 0.0677630677819252, -0.16227537393569946, 0.04597168415784836, -0.021469056606292725, -0.19329944252967834, 0.10873446613550186, -0.10519123077392578, -0.15865637362003326, 0.02376295067369938, 0.05891352891921997, 0.05802395939826965, 0.15489302575588226, 0.16270390152931213, -0.1470315009355545, -0.0038662394508719444, -0.03509142994880676], [-0.02627270668745041, 0.11994454264640808, 0.1307186484336853, 0.0472773015499115, -0.027138303965330124, -0.008760201744735241, -0.004998788703233004, -0.022846050560474396, -0.015547587536275387, 0.005882208701223135, 0.06363984942436218, -0.00018611819541547447, 0.12006588280200958, 0.14379914104938507, 0.0034309758339077234, 0.08855020999908447, -0.042296092957258224, 0.08842504769563675, 0.04940168932080269, -0.03206946328282356, 0.0473867803812027, -0.028869077563285828, 0.11721181869506836, 0.1030869409441948, -0.047064680606126785, 0.10730461776256561, 0.04494597017765045, -0.10634274780750275, 0.04407016932964325, -0.08893291652202606, 0.048290714621543884, 0.02186533808708191, 0.0438246876001358, 0.052052516490221024, 0.15535247325897217, 0.13088321685791016, 0.017673201858997345, 0.05804053694009781, 0.09457483142614365, -0.011954935267567635], [0.21922911703586578, 0.138224259018898, 0.010611481964588165, 0.0685708224773407, -0.08058540523052216, -0.18212221562862396, 0.10252828896045685, -0.014109805226325989, 0.17412443459033966, 0.018267372623085976, 0.1917436718940735, -0.03918309882283211, 0.11299901455640793, 0.11125964671373367, 0.11246497184038162, 0.16828560829162598, 0.26304933428764343, 0.08564063906669617, -0.058134134858846664, 0.1956174224615097, 0.14562653005123138, 0.047386281192302704, -0.007592819631099701, 0.0858500599861145, 0.06746029853820801, 0.002598904073238373, -0.01803802326321602, -0.011389638297259808, -0.08930239081382751, 0.10871648043394089, 0.2054610401391983, -0.014530080370604992, -0.07837775349617004, -0.07562661170959473, 0.18613356351852417, 0.16772346198558807, -0.06270444393157959, 0.018538931384682655, -0.12126190215349197, 0.14689920842647552], [0.164104163646698, 0.1682204306125641, 0.0932261049747467, -0.02906944416463375, 0.17731288075447083, 0.13900990784168243, 0.049280062317848206, 0.03857855126261711, 0.2176317274570465, 0.08988192677497864, -0.016639351844787598, 0.053304072469472885, -0.0712912529706955, -0.028889397159218788, 0.22008036077022552, 0.037718284875154495, 0.07246357202529907, -0.13137859106063843, 0.11999291181564331, 0.19259405136108398, -0.08683853596448898, 0.06014653295278549, -0.024006085470318794, 0.01955820620059967, 0.08583711832761765, -0.00684902910143137, 0.1790265589952469, -0.17333893477916718, 0.007498953025788069, 0.15190109610557556, 0.13238248229026794, 0.2154473066329956, 0.1426798403263092, -0.0016349912621080875, 0.16450999677181244, -0.010103262960910797, 0.2138516753911972, 0.03748752549290657, 0.21577785909175873, 0.25686684250831604], [-0.3433460593223572, -0.34470218420028687, -0.3007068336009979, 0.2515556216239929, 0.04071569815278053, -0.17519629001617432, -0.29575300216674805, 0.03040873259305954, -0.011534581892192364, -0.1707044541835785, -0.07976767420768738, 0.19303205609321594, -0.19467222690582275, -0.11790882796049118, -0.26757457852363586, 0.00502778310328722, -0.044735152274370193, -0.21098949015140533, 0.05376799777150154, 0.09776779264211655, 0.004504936747252941, -0.24789294600486755, 0.06029985472559929, 0.04606383666396141, 0.02069806307554245, -0.326699823141098, 0.05028285086154938, 0.0488450787961483, -0.11174817383289337, 0.31527504324913025, 0.10493019223213196, -0.12497374415397644, 0.23959815502166748, 0.1824434995651245, 0.14620284736156464, -0.07125263661146164, -0.11561938375234604, -0.03495399281382561, -0.12314514070749283, 0.33385148644447327], [0.17009969055652618, 0.18273405730724335, -0.21105100214481354, 0.2360602617263794, -0.22320792078971863, 0.02128702774643898, 0.04947832226753235, 0.23779496550559998, -0.15637262165546417, 0.03519235551357269, 0.10714700818061829, -0.05758126080036163, 0.11648944765329361, 0.06501041352748871, -0.1910911649465561, 0.03912030905485153, 0.20884369313716888, 0.14161600172519684, 0.006551650818437338, 0.12325415015220642, 0.5663938522338867, 0.03315809741616249, 0.02766207791864872, -0.0832538977265358, 0.10561671108007431, -0.13153328001499176, 0.012696613557636738, 0.01460819598287344, -0.13938096165657043, 0.17783068120479584, -0.06654584407806396, -0.056572116911411285, -0.041861288249492645, 0.22409547865390778, -0.22266021370887756, -0.0662776306271553, 0.26292312145233154, -0.04365537688136101, -0.27945414185523987, -0.1271570324897766], [0.02386780083179474, 0.11951342225074768, 0.1637682467699051, 0.24980618059635162, 0.08574803173542023, 0.2363770604133606, 0.05956341326236725, 0.15346278250217438, 0.1242644414305687, 0.03409836068749428, -0.021417565643787384, 0.2853674590587616, -0.0019148888532072306, -0.18041111528873444, -0.13543401658535004, -0.07786589115858078, 0.2126348614692688, 0.020670931786298752, -0.020490150898694992, -0.14454154670238495, -0.055185943841934204, -0.03685956820845604, -0.03600667044520378, -0.16136595606803894, 0.08292414247989655, 0.05418677255511284, 0.046032603830099106, 0.4417690634727478, 0.23048986494541168, 0.19787926971912384, 0.013682912103831768, 0.1771964728832245, -0.010183739475905895, 0.22559292614459991, -0.22153925895690918, -0.14970602095127106, -0.06763250380754471, 0.31087327003479004, -0.18432417511940002, -0.06152217090129852], [-0.31946584582328796, -0.2491152137517929, -0.101849764585495, 0.06120474264025688, 0.0216987282037735, -0.022970926016569138, 0.018348529934883118, -0.0776771679520607, -0.11312191933393478, -0.16026701033115387, 0.06016748026013374, 0.11025058478116989, 0.08369529247283936, 0.08938730508089066, -0.14060792326927185, 0.20482602715492249, -0.09359487146139145, 0.010717952623963356, -0.15314242243766785, 0.015402557328343391, 0.07394763827323914, 0.06525735557079315, 0.09056474268436432, 0.12653104960918427, -0.0871674194931984, 0.07643072307109833, -0.2155320644378662, -0.03653941676020622, -0.2568996250629425, -0.009252024814486504, 0.05615038797259331, -0.21569107472896576, 0.08113670349121094, 0.10616414994001389, -0.0437711663544178, -0.05341218039393425, 0.005739436484873295, -0.2690325677394867, 0.13966959714889526, -0.06101110950112343], [0.07919345051050186, 0.1639164537191391, -0.038223810493946075, 0.4534926414489746, -0.19094057381153107, 0.07591977715492249, -0.06808009743690491, 0.04034760966897011, -0.10370482504367828, -0.059161439538002014, 0.25931409001350403, -0.10664767026901245, 0.11429134011268616, 0.14356990158557892, -0.09272221475839615, 0.025684013962745667, 0.027608012780547142, 0.3011312186717987, 0.011274570599198341, 0.015902169048786163, 0.33400851488113403, 0.006929758936166763, -0.002540913876146078, -0.009964311495423317, 0.10122768580913544, -0.02326088957488537, 0.026332644745707512, 0.1756637543439865, -0.25849345326423645, 0.09753833711147308, -0.11094248294830322, 0.03136144205927849, -0.22921517491340637, 0.052325230091810226, 0.09336870908737183, -0.04005521908402443, -0.07905609905719757, -0.1033104658126831, 0.010674400255084038, 0.03649759292602539], [0.13879843056201935, -0.06050550565123558, -0.1554160863161087, -0.44813117384910583, -0.04551218822598457, 0.03687264025211334, -0.16118234395980835, 0.16961808502674103, -0.0032820110209286213, -0.008809368126094341, 0.024264613166451454, 0.2877745032310486, 0.08635483682155609, -0.2762201428413391, -0.13737845420837402, 0.19102144241333008, 0.09072898328304291, -0.06271790713071823, 0.11113911122083664, -0.1680838167667389, -0.062479790300130844, 0.22238697111606598, -0.10286080092191696, -0.040426816791296005, -0.2551015615463257, 0.15393324196338654, 0.08538579195737839, -0.1913016140460968, 0.12032188475131989, 0.10881651192903519, 0.05577193200588226, -0.0004636478843167424, 0.08631572872400284, 0.20704002678394318, -0.2713555693626404, 0.05591196566820145, 0.07347112894058228, 0.023230180144309998, 0.052905309945344925, -0.06085415929555893], [0.11143822222948074, 0.16388161480426788, 0.16431200504302979, 0.23857592046260834, -0.0862879604101181, -0.12798823416233063, 0.14450447261333466, 0.07906927913427353, -0.23702171444892883, -0.16427944600582123, 0.023342905566096306, 0.03681638091802597, 0.07519836723804474, 0.2264120727777481, 0.11316362023353577, -0.06487984955310822, -0.08356605470180511, 0.07244913280010223, 0.07152579724788666, 0.03738994151353836, -0.07655978202819824, -0.11886398494243622, -0.023211032152175903, 0.08658816665410995, -0.00660206563770771, 0.049849215894937515, 0.031225403770804405, 0.33751189708709717, -0.14508260786533356, -0.0473126657307148, -0.20063373446464539, 0.16965065896511078, -0.003989569377154112, 0.27392828464508057, 0.03317904844880104, -0.0763935074210167, -0.11340729147195816, -0.14107130467891693, 0.07161775231361389, -0.07105236500501633], [0.020898042246699333, -0.19107577204704285, 0.09391821175813675, 0.053684018552303314, 0.12995031476020813, 0.1594327837228775, 0.010402140207588673, 0.06190365552902222, 0.0886523500084877, 0.19465632736682892, -0.09833429753780365, 0.19342918694019318, -0.26958122849464417, -0.14180028438568115, 0.3045769929885864, -0.19050663709640503, 0.02759036049246788, 0.020240962505340576, 0.18997475504875183, 0.11247570067644119, -0.2119872123003006, -0.26520419120788574, -0.0035406912211328745, -0.18905827403068542, 0.11503442376852036, -0.20066209137439728, -0.039975203573703766, -0.14524635672569275, 0.08833757787942886, 0.11809360980987549, -0.08799867331981659, 0.159744992852211, -0.23206977546215057, -0.0072672413662076, 0.06485605239868164, -0.16275878250598907, 0.09282834827899933, 0.19040416181087494, -0.27286380529403687, 0.08035261183977127], [-0.08075525611639023, -0.016166038811206818, 0.17002630233764648, 0.15015682578086853, 0.16439032554626465, 0.056561555713415146, -0.0808630883693695, -0.10294661670923233, 0.14531265199184418, -0.09787072986364365, 0.1531766653060913, 0.030224952846765518, -0.19195567071437836, -0.18228591978549957, -0.09138050675392151, -0.0029253331013023853, -0.1509857177734375, -0.003187567461282015, 0.010052579455077648, -0.21180036664009094, -0.056743644177913666, -0.17436125874519348, 0.0002375001204200089, -0.08041330426931381, 0.18351489305496216, -0.10302619636058807, -0.17698492109775543, -0.10264009237289429, 0.12413052469491959, 0.09968236088752747, 0.09704238176345825, -0.022695600986480713, 0.014220232143998146, 0.08165227621793747, -0.06586571037769318, -0.1563289761543274, -0.2658222019672394, -0.12570303678512573, -0.034581106156110764, 0.11615800112485886], [-0.022840185090899467, -0.07281362265348434, 0.24305793642997742, -0.036307573318481445, 0.15850068628787994, -0.16813814640045166, -0.04694965481758118, -0.26933735609054565, 0.1770639568567276, 0.1285427361726761, -0.014336105436086655, -0.19579806923866272, -0.20668743550777435, 0.09154732525348663, 0.09082643687725067, -0.12486717849969864, -0.16853688657283783, -0.14759378135204315, -0.10058393329381943, 0.14413855969905853, -0.025153322145342827, -0.2251719981431961, -0.028364984318614006, -0.014063239097595215, 0.1667395830154419, -0.15687555074691772, 0.05099007487297058, -0.28211116790771484, -0.11421000212430954, 0.14341403543949127, 0.041185762733221054, -0.05547216907143593, -0.11138186603784561, -0.31377458572387695, 0.26937437057495117, 0.13470067083835602, 0.01069991197437048, -0.06875841319561005, 0.1724991351366043, 0.1915561407804489], [0.20037685334682465, 0.11593030393123627, 0.17710180580615997, 0.23766909539699554, 0.1877450942993164, -0.14688049256801605, -0.13248151540756226, 0.14454162120819092, -0.010392329655587673, 0.11449850350618362, -0.16856087744235992, 0.05045933648943901, -0.10972268879413605, 0.045320481061935425, 0.2765291929244995, 0.10345981270074844, -0.090970978140831, -0.05713104084134102, 0.06642201542854309, 0.19078487157821655, -0.04192252457141876, 0.14242103695869446, -0.030985090881586075, 0.1723352074623108, -0.0406825952231884, 0.052777089178562164, 0.11328155547380447, 0.3117958903312683, -0.17854975163936615, -0.051411036401987076, 0.2591625452041626, -0.20692329108715057, 0.15258537232875824, 0.07945245504379272, 0.1959562599658966, 0.012465190142393112, -0.025570262223482132, 0.011853557080030441, 0.017421528697013855, 0.09378471970558167], [0.06423009932041168, -0.05538831651210785, 0.008558361791074276, -0.02321438491344452, 0.14484114944934845, -0.24217163026332855, -0.15202596783638, 0.018385227769613266, 0.07014619559049606, 0.28297513723373413, -0.216689333319664, -0.1299419403076172, 0.08160125464200974, 0.15643833577632904, 0.018111955374479294, 0.07576166093349457, 0.01873204857110977, 0.006990100257098675, -0.06307187676429749, -0.07158736884593964, -0.061961445957422256, 0.16020911931991577, -0.12090939283370972, 0.03886396810412407, -0.2740194499492645, -0.01566453091800213, 0.19241392612457275, -0.08556131273508072, 0.2541806101799011, 0.011914229951798916, 0.045727502554655075, 0.006387334316968918, 0.027929093688726425, -0.03507307171821594, 0.24673646688461304, 0.1080884337425232, -0.17938578128814697, 0.23116159439086914, 0.36624443531036377, -0.038880713284015656], [0.2081812471151352, -0.01780078001320362, -0.022675884887576103, 0.10450240969657898, -0.02836175262928009, -0.11725570261478424, -0.1665409952402115, 0.20512905716896057, -0.03825487568974495, -0.010651886463165283, -0.1671983003616333, 0.3180353343486786, 0.013817854225635529, -0.23338569700717926, 0.2056606113910675, -0.15191759169101715, 0.17117220163345337, -0.010148306377232075, 0.12916572391986847, -0.034202154725790024, -0.154933363199234, 0.29242274165153503, -0.1517162173986435, 0.045097555965185165, -0.12689802050590515, -0.14337413012981415, 0.2086704820394516, 0.2773852050304413, 0.06595951318740845, 0.001093258149921894, 0.25203704833984375, 0.14098899066448212, 0.20922981202602386, 0.03842383250594139, 0.043102048337459564, -0.30611395835876465, 0.1287766546010971, -0.020833265036344528, -0.07157573103904724, -0.10009009391069412], [0.18448787927627563, 0.248564675450325, -0.03622052073478699, 0.21972300112247467, -0.06292188912630081, 0.1962965428829193, -0.03133048489689827, 0.08824951946735382, 0.09717358648777008, 0.0597221776843071, -0.07431156188249588, 0.172535702586174, 0.0696677565574646, -0.036792587488889694, -0.0862114205956459, 0.25046154856681824, 0.22806993126869202, -0.03487205132842064, 0.09689687192440033, -0.09361294656991959, -0.10125727951526642, 0.15508562326431274, -0.06200326979160309, -0.01080570463091135, -0.028998544439673424, 0.047643858939409256, -0.1862020492553711, 0.120182104408741, 0.18067903816699982, 0.03687899559736252, -0.019804414361715317, 0.24728697538375854, 0.010036409832537174, -0.022995274513959885, -0.13621743023395538, -0.03365543112158775, 0.046196360141038895, 0.18110904097557068, -0.11020642518997192, 0.012541636824607849], [0.15689940750598907, -0.030271248891949654, 0.05432743951678276, 0.2140553593635559, -0.013881008140742779, 0.09061063081026077, 0.11030635982751846, -0.0665702074766159, -0.05980890616774559, -0.10026818513870239, 0.12170154601335526, 0.08426407724618912, -0.050285059958696365, -0.0752469152212143, 0.016736069694161415, 0.3257780969142914, -0.002330484800040722, 0.06618475168943405, 0.03854548931121826, -0.16312825679779053, 0.00710034416988492, 0.055369287729263306, 0.22821027040481567, 0.19918397068977356, -0.09246977418661118, 0.24031110107898712, -0.08874737471342087, 0.12090980261564255, 0.06236908957362175, -0.11591070145368576, 0.27319905161857605, -0.1510731726884842, 0.2736368179321289, 0.046696390956640244, 0.13358570635318756, 0.004753466695547104, -0.1392708271741867, 0.0034882472828030586, -0.13566678762435913, 0.15454871952533722], [-0.023935729637742043, -0.25120383501052856, 0.09416703879833221, 0.06768658757209778, -0.10419360548257828, 0.1941625475883484, 0.2565567195415497, -0.0983799621462822, -0.03595747426152229, 0.008878655731678009, -0.11750822514295578, -0.02764979936182499, -0.1169009655714035, -0.06396108120679855, 0.012491817586123943, 0.145040825009346, 0.21111980080604553, 0.1457027792930603, 0.09702596813440323, 0.2797916531562805, -0.15037906169891357, 0.0224518571048975, 0.07895685732364655, -0.16377435624599457, 0.014835458248853683, 0.11532700806856155, 0.2225218415260315, 0.13385267555713654, 0.1878846287727356, -0.1703566014766693, -0.2771192491054535, -0.11379331350326538, -0.045670781284570694, 0.004412708338350058, 0.2965627610683441, 0.160452738404274, -0.0018407728057354689, 0.3299349248409271, -0.08441181480884552, -0.15563738346099854], [-0.01028443779796362, -0.1623007357120514, -0.1975766271352768, -0.2324945032596588, 0.05500223487615585, 0.1437336504459381, 0.12738512456417084, 0.08996757119894028, -0.04824948310852051, -0.17594139277935028, 0.13381192088127136, 0.2128695696592331, -0.03998280689120293, -0.12355317920446396, -0.008083388209342957, -0.025662994012236595, 0.06337925046682358, -0.09092401713132858, -0.017520764842629433, -0.22898918390274048, -0.02442222647368908, -0.1348266303539276, 0.11991492658853531, 0.07104535400867462, -0.1397239863872528, -0.007854579016566277, -0.08668310195207596, -0.1833103746175766, 0.1862306296825409, -0.03058224730193615, 0.15582819283008575, -0.20330576598644257, 0.10941837728023529, 0.1140066385269165, -0.26775822043418884, -0.04605429619550705, 0.05431801453232765, 0.07590799033641815, -0.14453478157520294, 0.08071158081293106], [0.14401623606681824, 0.17839527130126953, 0.23380807042121887, 0.17329345643520355, -0.03846117854118347, -0.16902947425842285, 0.04401275888085365, 0.2106362283229828, -0.0009161718771792948, 0.13812117278575897, -0.18796251714229584, -0.08774423599243164, 0.004822434391826391, 0.13151130080223083, -0.05380053073167801, 0.029179522767663002, 0.09472504258155823, -0.06735043227672577, -0.009903835132718086, 0.20199674367904663, 0.02348085306584835, 0.10792446881532669, -0.08800704032182693, 0.08141976594924927, -0.0580001026391983, -0.2693703770637512, 0.3407467305660248, 0.04262661188840866, -0.008839311078190804, 0.09864895045757294, -0.20376111567020416, -0.026033593341708183, -0.11164320260286331, 0.19826528429985046, 0.005302644334733486, 0.020115258172154427, 0.04589932784438133, 0.097381591796875, 0.07009359449148178, -0.09767726808786392], [0.07664038985967636, 0.10305618494749069, -0.013705532997846603, -0.030164500698447227, 0.0661734789609909, -0.07050769031047821, 0.21279969811439514, 0.09646587818861008, -0.2538158893585205, -0.106735460460186, -0.021622804924845695, 0.29200249910354614, -0.028944868594408035, -0.20492589473724365, 0.256503701210022, -0.08011144399642944, 0.024597669020295143, -0.13075551390647888, -0.15427418053150177, 0.1864197850227356, 0.049474820494651794, 0.16100086271762848, -0.14236010611057281, -0.01810472086071968, 0.011567963287234306, -0.21578319370746613, 0.0025727173779159784, 0.09161806851625443, -0.02045915089547634, -0.007085602730512619, 0.009205639362335205, -0.13667400181293488, 0.17969569563865662, 0.13739873468875885, -0.29285746812820435, -0.07570953667163849, 0.10584776848554611, 0.014237740077078342, -0.0719512477517128, -0.15176178514957428], [-0.28573498129844666, -0.21216772496700287, 0.10048044472932816, 0.002135560382157564, -0.07160133868455887, -0.07829009741544724, 0.0938493013381958, -0.1826259195804596, -0.35864973068237305, -0.04671373963356018, -0.015149355866014957, -0.11309579759836197, 0.054099682718515396, 0.05074379965662956, -0.05558275058865547, 0.26153501868247986, 0.01475493423640728, -0.017246566712856293, 0.02881511114537716, -0.19724532961845398, 0.13494475185871124, -0.049349941313266754, 0.0879889503121376, 0.09542995691299438, -0.22833921015262604, 0.19045060873031616, 0.02572045475244522, 0.23915207386016846, 0.17112292349338531, -0.15055648982524872, 0.0034236174542456865, -0.1276179999113083, 0.10610853135585785, -0.06434763967990875, 0.18109649419784546, 0.23072807490825653, -0.1890394538640976, 0.11324900388717651, 0.1585233211517334, -0.004780510440468788], [0.08851255476474762, 0.006497678812593222, -0.12591160833835602, -0.10932496190071106, 0.06397608667612076, -0.0513249970972538, -0.21275214850902557, -0.01992122270166874, 0.058426547795534134, 0.04987812414765358, -0.13124050199985504, -0.008311943151056767, -0.1090279221534729, -0.38116583228111267, 0.09716923534870148, -0.0246299896389246, 0.08469313383102417, -0.17543625831604004, 0.03310101479291916, -0.04639572277665138, -0.15251553058624268, 0.3161383271217346, -0.21032807230949402, 0.008106501772999763, -0.2184758335351944, -0.0008437624201178551, 0.11565549671649933, 0.11381750553846359, 0.13381235301494598, 0.06533845514059067, 0.03701957315206528, -0.014351275749504566, 0.010442614555358887, -0.12402988970279694, -0.04715389013290405, -0.07085580378770828, 0.014960629865527153, 0.007295842282474041, 0.11528132110834122, 0.04149108752608299], [0.1661171317100525, 0.10888704657554626, -0.22211673855781555, -0.2724591791629791, 0.16963127255439758, 0.20019195973873138, 0.002766235964372754, -0.0690479502081871, -0.033402763307094574, -0.04467832297086716, -0.1584264039993286, -0.005537735298275948, -0.09203806519508362, -0.29998552799224854, -0.06508777290582657, 0.21825827658176422, -0.12212344259023666, -0.237928569316864, -0.20409777760505676, -0.07492796331644058, -0.0026338982861489058, 0.04694552347064018, -0.1454199254512787, 0.11596870422363281, 0.11241140961647034, 0.00470762001350522, -0.2120179384946823, -0.13212651014328003, -0.23237235844135284, -0.12924882769584656, 0.2585468590259552, -0.24782714247703552, 0.022110125049948692, -0.2700614035129547, -0.23558489978313446, 0.10104841738939285, 0.21195463836193085, -0.22624853253364563, -0.1764717847108841, -0.014378893189132214], [0.025023004040122032, -0.2543119490146637, -0.012315434403717518, 0.1020975410938263, -0.12786418199539185, 0.24475263059139252, 0.1712760627269745, -0.04658526927232742, 0.13717389106750488, 0.11574967950582504, 0.04086909070611, 0.04991007596254349, -0.07401370257139206, 0.06358867883682251, -0.05668308213353157, -0.04542475938796997, 0.11620820313692093, 0.2740497589111328, 0.14648187160491943, 0.12209685891866684, -0.12715891003608704, -0.09825719892978668, 0.20492970943450928, -0.14720554649829865, 0.027073964476585388, 0.24706807732582092, -0.037898071110248566, -0.16183367371559143, -0.012455735355615616, -0.12662556767463684, -0.07487821578979492, 0.009448627009987831, -0.07736480236053467, 0.030681172385811806, -0.005244231782853603, -0.008109024725854397, -0.03253762423992157, -0.1647011786699295, -0.16615548729896545, -0.0606873519718647], [-0.05023001506924629, -0.17057913541793823, -0.20677222311496735, 0.30248671770095825, -0.1360325664281845, -0.02645336650311947, 0.16080519556999207, 0.11458814144134521, -0.09956017136573792, -0.2738858163356781, 0.15743404626846313, 0.16322562098503113, -0.17581020295619965, -0.14998580515384674, 0.03834192454814911, -0.02759208343923092, 0.18830183148384094, 0.11902406066656113, 0.11834773421287537, 0.19971798360347748, -0.0788172259926796, 0.019918574020266533, 0.1995193213224411, 0.14419196546077728, -0.12242969125509262, 0.044545978307724, -0.0016807797364890575, 0.12593139708042145, 0.18314863741397858, -0.18830494582653046, -0.011160952039062977, 0.0034503403585404158, 0.11031149327754974, 0.18735376000404358, 0.11613047122955322, -0.20193475484848022, -0.15812276303768158, 0.05266965553164482, -0.16953636705875397, 0.12957113981246948], [-0.10123080760240555, -0.19323676824569702, 0.1565982699394226, -0.09469970315694809, -0.08588135242462158, 0.22629553079605103, -0.1429653763771057, -0.10462687909603119, -0.03988761454820633, 0.06857765465974808, -0.1496177762746811, -0.10498034954071045, -0.20498791337013245, -0.23178553581237793, -0.05116815119981766, 0.08225367218255997, -0.03541674464941025, -0.1563389003276825, 0.0922042652964592, -0.10420985519886017, -0.09786325693130493, -0.12397218495607376, 0.04979687184095383, 0.09817147254943848, 0.07573913782835007, -0.12218616157770157, 0.02720569632947445, -0.13647784292697906, 0.05855735018849373, 0.19235709309577942, -0.02853158488869667, 0.0871126726269722, -0.05020279809832573, -0.03023223578929901, 0.15620368719100952, -0.19532783329486847, 0.028202887624502182, 0.033649690449237823, 0.01207354199141264, 0.2441815435886383], [0.2010086178779602, 0.013384062796831131, 0.14273028075695038, -0.01711263880133629, 0.05401907116174698, 0.26520195603370667, -0.09775909036397934, -0.00420644786208868, 0.25780147314071655, 0.06257401406764984, 0.009895358234643936, 0.03642464429140091, 0.12063736468553543, -0.026099232956767082, 0.032899901270866394, -0.05717959627509117, -0.17927195131778717, 0.2019384354352951, 0.10466478019952774, -0.03796428442001343, -0.22806760668754578, 0.049563951790332794, 0.08971206843852997, -0.008657350204885006, 0.018618838861584663, 0.12838110327720642, 0.019783228635787964, 0.0900997668504715, 0.22375069558620453, -0.0012826460879296064, 0.009201000444591045, 0.10052860528230667, -0.21925927698612213, -0.183778315782547, -0.09930559992790222, -0.1761077344417572, -0.01885337568819523, 0.11117713153362274, 0.02189633436501026, 0.034160397946834564], [0.15988890826702118, 0.07198316603899002, -0.05766616016626358, 0.25507837533950806, -0.2405640333890915, 0.1280694454908371, -0.02445145510137081, 0.0819040983915329, -0.11555995792150497, -0.1776985377073288, -0.1244695857167244, 0.07568635791540146, -0.17288492619991302, -0.10061637312173843, 0.09072276949882507, 0.17968586087226868, 0.12176406383514404, -0.056656528264284134, 0.15746526420116425, 0.10040488839149475, 0.18942007422447205, 0.03993386775255203, -0.19741135835647583, -0.04065652936697006, 0.06062312796711922, -0.21272796392440796, 0.048824530094861984, 0.014762882143259048, -0.06066426262259483, -0.08172719925642014, 0.1361730843782425, -0.22081653773784637, 0.24249659478664398, -0.052181072533130646, -0.14364472031593323, -0.27416741847991943, -0.028860263526439667, -0.062427591532468796, -0.4059545695781708, 0.06944447755813599], [-0.10994307696819305, -0.009729176759719849, 0.051542606204748154, -0.10035331547260284, 0.038899023085832596, 0.19046901166439056, -0.04858739301562309, -0.023345941677689552, 0.06733833998441696, -0.15024375915527344, 0.13847045600414276, 0.061345599591732025, -0.20244407653808594, -0.051287900656461716, -0.07181087881326675, 0.2888531982898712, -0.04234105721116066, -0.10165698826313019, 0.01972464844584465, -0.03643506020307541, -0.10559482872486115, 0.045598261058330536, 0.24943898618221283, 0.13298743963241577, -0.04244823008775711, -0.03192058578133583, -0.025887371972203255, 0.2213933914899826, 0.15052711963653564, 0.15707656741142273, 0.15028062462806702, 0.03698037192225456, 0.18256115913391113, 0.06417344510555267, 0.11905115842819214, -0.1524893045425415, -0.21119707822799683, 0.009412141516804695, 0.07915709167718887, 0.22374793887138367], [-0.1018771156668663, -0.18220043182373047, -0.10324182361364365, 0.16363190114498138, -0.039222247898578644, -0.13532251119613647, -0.0531124547123909, 0.07650426030158997, 0.005359941627830267, 0.07206518948078156, -0.030176928266882896, -0.03503943234682083, 0.21260659396648407, 0.05065856873989105, -0.17222140729427338, 0.01674204133450985, 0.045577820390462875, 0.02793682925403118, -0.057543717324733734, 0.15311014652252197, -0.16375717520713806, 0.235236257314682, 0.0016669398173689842, -0.007734435610473156, -0.20925526320934296, 0.1852698028087616, -0.11828968673944473, 0.11321204155683517, -0.1647924929857254, 0.017037808895111084, 0.03586192801594734, 0.035851605236530304, 0.04876251891255379, -0.002165550831705332, 0.02983435057103634, -0.029255105182528496, 0.19435885548591614, -0.1336480975151062, 0.1725625991821289, -0.16183532774448395], [0.011016643606126308, 0.05265219137072563, 0.09872180223464966, 0.16241410374641418, -0.16205903887748718, -0.16659466922283173, 0.05054895952343941, 0.06908468902111053, -0.19895517826080322, 0.0873354896903038, 0.15176184475421906, -0.0013395791174843907, 0.1869136542081833, 0.14264366030693054, 0.02937728352844715, -0.022655492648482323, 0.151564359664917, 0.26137542724609375, 0.08061118423938751, -0.07963863760232925, 0.17858020961284637, -0.09218057990074158, 0.18918642401695251, 0.021546214818954468, -0.07031810283660889, 0.11403842270374298, 0.049239467829465866, 0.3041994571685791, 0.006675667129456997, -0.026563454419374466, -0.14617829024791718, 0.1561153382062912, -0.057844266295433044, 0.14041946828365326, 0.047173019498586655, 0.24980835616588593, -0.037712156772613525, 0.0790664404630661, 0.09212271124124527, -0.06777062267065048], [-0.138941690325737, -0.008969680406153202, -0.1824028193950653, -0.08097408711910248, -0.18727999925613403, 0.08347659558057785, -0.14059625566005707, -0.22432126104831696, 0.1255960315465927, 0.21977975964546204, -0.0615258552134037, 0.05177716165781021, 0.19004718959331512, 0.028933674097061157, -0.029875462874770164, 0.011366477236151695, -0.12745751440525055, 0.1047961413860321, 0.11790001392364502, -0.16606789827346802, -0.02479211613535881, 0.2789502441883087, -0.0970764309167862, -0.015167121775448322, -0.14281848073005676, 0.11327654868364334, -0.19653847813606262, -0.22443948686122894, 0.11485087126493454, 0.027563076466321945, -0.006418462842702866, 0.25015559792518616, 0.13147875666618347, -0.2620989680290222, 0.0756039097905159, -0.03606150299310684, 0.20078659057617188, 0.18930840492248535, 0.12843827903270721, -0.04982610419392586], [0.06734207272529602, -0.04460127651691437, 0.04440676420927048, 0.1611228585243225, -0.021082846447825432, 0.43386581540107727, 0.23869258165359497, -0.14644677937030792, 0.02020305022597313, -0.3017197251319885, 0.129227876663208, 0.09420659393072128, 0.04055362939834595, -0.25959256291389465, 0.01940724439918995, 0.2149217128753662, 0.10823144763708115, -0.0996173620223999, -0.17167913913726807, -0.21842126548290253, 0.0007711517973802984, -0.1465592384338379, 0.04985067993402481, 0.018725723028182983, 0.25524821877479553, 0.10680930316448212, -0.14329837262630463, 0.20094449818134308, -0.01959305815398693, 0.21732494235038757, 0.06372770667076111, -0.09531547129154205, 0.1579631268978119, -0.014630492776632309, 0.001195032731629908, 0.09569817036390305, 0.14285120368003845, 0.025973070412874222, -0.04014536738395691, 0.19507311284542084], [-0.0885830745100975, -0.03101143054664135, 0.19627873599529266, -0.02289094775915146, 0.16714604198932648, -0.10032882541418076, -0.09268070757389069, -0.08828820288181305, 0.17088374495506287, -0.08186186105012894, -0.10814693570137024, -0.009274063631892204, -0.22725285589694977, -0.05292431265115738, 0.12096882611513138, -0.255093514919281, -0.03307724744081497, -0.1273065060377121, -0.03145894780755043, -0.00614510290324688, -0.23675000667572021, 0.02435125969350338, -0.1635764092206955, -0.1565246433019638, 0.05981328338384628, -0.22927653789520264, 0.05582505837082863, -0.14126181602478027, -0.08541484922170639, 0.10317803919315338, 0.006702619604766369, -0.16208846867084503, -0.04541132226586342, -0.18336325883865356, -0.053798381239175797, -0.1998368501663208, 0.062276922166347504, -0.02384628728032112, -0.08593948930501938, 0.2016448676586151], [-0.3130289316177368, 0.10292220115661621, -0.30885908007621765, -0.26087644696235657, 0.13180509209632874, 0.16376611590385437, 0.12667982280254364, 0.13067102432250977, 0.11151453107595444, -0.012421662919223309, -0.07361201196908951, 0.2151813954114914, 0.17878004908561707, -0.11004529893398285, -0.15345509350299835, 0.31316012144088745, 0.057573102414608, -0.05666198953986168, -0.133333221077919, 0.018559275195002556, 0.08106890320777893, -0.2170175164937973, 0.0411999374628067, -0.11660285294055939, -0.12240660935640335, 0.06088694557547569, 0.05358424037694931, -0.18583527207374573, 0.10790890455245972, 0.1690400242805481, 0.016088813543319702, -0.012033317238092422, -0.023137595504522324, 0.16781064867973328, -0.18599644303321838, 0.08874788880348206, 0.10620339959859848, 0.15515349805355072, -0.07354538887739182, -0.11758305132389069], [-0.1419626921415329, -0.15063416957855225, 0.2451912760734558, 0.23215243220329285, 0.09573659300804138, 0.013855790719389915, 0.003286700928583741, -0.34573274850845337, 0.0465736910700798, 0.000278506544418633, 0.058621954172849655, -0.05462534725666046, -0.16114386916160583, -0.010865334421396255, 0.02480856142938137, 0.1399691104888916, 0.011577768251299858, -0.025177814066410065, 0.09372534602880478, 0.1281171292066574, -0.10927010327577591, -0.0452115423977375, 0.063540980219841, 0.0038347868248820305, -0.01064606849104166, 0.14647670090198517, -0.1695333868265152, -0.1843094378709793, -0.05917956680059433, 0.018691791221499443, 0.08365469425916672, 0.1702098548412323, 0.23504579067230225, -0.10497092455625534, 0.17841105163097382, -0.10396329313516617, -0.0297181885689497, -0.058848462998867035, 0.03604712337255478, 0.2085423618555069], [0.10129712522029877, -0.133584663271904, 0.21695838868618011, -0.12960083782672882, 0.13748787343502045, 0.026881013065576553, -0.08376672118902206, 0.02141966111958027, 0.1264376938343048, 0.04626796767115593, -0.16706298291683197, -0.06152243912220001, -0.09537873417139053, -0.07730963081121445, -0.026526564732193947, 0.0485597662627697, 0.0862898901104927, -0.04280645027756691, 0.10828188061714172, 0.22865450382232666, -0.09842268377542496, 0.00011590862413868308, -0.22695448994636536, -0.16014759242534637, -0.06762749701738358, -0.13680635392665863, 0.026797404512763023, -0.1901242882013321, 0.10745677351951599, 0.057661984115839005, -0.011776690371334553, -0.0945887491106987, -0.08833078294992447, -0.14381401240825653, 0.2703295350074768, -0.019463028758764267, 0.055104151368141174, 0.2566457688808441, -0.15010090172290802, 0.11461567133665085], [-0.25381287932395935, -0.14765514433383942, -0.13913679122924805, 0.30150285363197327, -0.21615928411483765, 0.10024486482143402, -0.06083914265036583, 0.05300160497426987, -0.01167376060038805, 0.18174168467521667, -0.15549182891845703, 0.3245040774345398, 0.09614741802215576, -0.09444024413824081, -0.19619770348072052, 0.15344324707984924, 0.3695090413093567, 0.005770930089056492, 0.12161923199892044, -0.0087840361520648, 0.016697674989700317, 0.14179033041000366, -0.3282902240753174, -0.13038794696331024, -0.098744697868824, -0.07434172928333282, -0.06749533861875534, 0.25052398443222046, -0.0730871930718422, 0.11385173350572586, -0.017553262412548065, 0.051769305020570755, 0.13791267573833466, -0.1344088912010193, 0.138856440782547, -0.04847800359129906, 0.05156769976019859, 0.06145627051591873, -0.22084546089172363, 0.03458087146282196], [-0.0348016619682312, -0.18330472707748413, 0.056841813027858734, 0.21464647352695465, -0.18268077075481415, 0.08108911663293839, 0.0961688682436943, -0.1033267006278038, -0.09465168416500092, -0.055661700665950775, -0.039509307593107224, 0.1573166400194168, 0.01780630648136139, -0.036002133041620255, 0.051723431795835495, 0.09927401691675186, -0.018605872988700867, 0.10195278376340866, 0.25081339478492737, 0.1400052160024643, -0.035305675119161606, -0.047466084361076355, 0.07145965844392776, -0.00811302475631237, 0.01208861917257309, 0.17458872497081757, -0.18392202258110046, -0.0653923898935318, 0.004560111090540886, -0.17715424299240112, 0.08106806129217148, 0.11479220539331436, 0.1065264642238617, -0.0465715266764164, -0.12014409154653549, -0.13494129478931427, -0.1081114336848259, -0.1181756779551506, -0.17977187037467957, -0.11853441596031189], [0.058032602071762085, -0.030657220631837845, 0.09000809490680695, 0.28256163001060486, -0.12612225115299225, 0.17330411076545715, 0.26485782861709595, 0.0203908272087574, -0.22525174915790558, -0.24982769787311554, 0.25219810009002686, 0.10405838489532471, 0.12892647087574005, 0.04062483087182045, -0.028518712148070335, 0.0640782043337822, 0.009235311299562454, 0.1881028711795807, 0.0027495943941175938, -0.1842268854379654, 0.03583930432796478, 0.0792081356048584, 0.26361361145973206, 0.09829983115196228, -0.15515439212322235, 0.20250555872917175, -0.12790349125862122, 0.21689248085021973, -0.09022674709558487, 0.020795905962586403, -0.1589687317609787, 0.09173133969306946, 0.019327757880091667, 0.1421024352312088, 0.03175581246614456, -0.03974256291985512, -0.04989016801118851, -0.05505124852061272, -0.02218262478709221, -0.125396728515625], [-0.057231057435274124, -0.09218344837427139, 0.0719083696603775, -0.17218105494976044, 0.18198618292808533, 0.1256064623594284, 0.04119882360100746, -0.1312369853258133, 0.12624774873256683, 0.09483886510133743, 0.11071549355983734, -0.20341505110263824, -0.09161237627267838, -0.028396664187312126, 0.029772266745567322, -0.027587300166487694, -0.029678042978048325, 0.0974014401435852, -0.05841509997844696, 0.17443130910396576, 0.05820619687438011, -0.12239864468574524, 0.08869138360023499, -0.16227653622627258, -0.07794477790594101, 0.07105276733636856, -0.061804886907339096, -0.17572180926799774, 0.15018247067928314, -0.1101510152220726, -0.24650099873542786, -0.19158527255058289, -0.09463681280612946, -0.0719827339053154, 0.008550459519028664, 0.08784262835979462, 0.10165619105100632, 0.3075871467590332, -0.10922843217849731, 0.2105185091495514], [0.10391972959041595, 0.3207029402256012, 0.06275452673435211, 0.12017722427845001, -0.01522887870669365, 0.10426268726587296, 0.011385096237063408, -0.12581278383731842, -0.12637735903263092, -0.09150990098714828, 0.2186698317527771, 0.005758916959166527, 0.17292240262031555, -0.07969126105308533, 0.11763982474803925, -0.026539450511336327, -0.08156517893075943, 0.2212955802679062, 0.0881328284740448, -0.2804654836654663, -0.06881266832351685, 0.1406329721212387, 0.11313686519861221, 0.17562343180179596, -0.08129896223545074, 0.07004857808351517, -0.19066005945205688, 0.20813915133476257, -0.09329522401094437, 0.05314240604639053, 0.04435516521334648, 0.18688111007213593, -0.10030477494001389, -0.17177748680114746, -0.2664250433444977, 0.03394555673003197, 0.08611363172531128, -0.06882710009813309, -0.07001390308141708, -0.14796748757362366], [0.09940730035305023, 0.058224938809871674, -0.07785724848508835, -0.24554072320461273, -0.03548470139503479, -0.005860313307493925, 0.04870404303073883, -0.08420206606388092, -0.07408188283443451, -0.11552166193723679, 0.06168374791741371, -0.058393098413944244, 0.021089540794491768, -0.07560069859027863, 0.15011070668697357, 0.0986231341958046, 0.014804624952375889, -0.16663821041584015, -0.11190205067396164, -0.1312292069196701, -0.19137726724147797, 0.08942180871963501, -0.18410900235176086, -0.025405632331967354, 0.009607091546058655, -0.0990421324968338, -0.10901663452386856, -0.15806476771831512, -0.0871899351477623, 0.1771564483642578, 0.009302712976932526, 0.19337619841098785, -0.06090942397713661, -0.14377142488956451, -0.14359846711158752, -0.25961834192276, 0.2001877725124359, 0.003997243009507656, -0.11824429035186768, -0.011636327020823956], [0.20633246004581451, -0.08007724583148956, -0.21534401178359985, 0.007219065446406603, -0.18279242515563965, 0.07933971285820007, 0.14433890581130981, -0.1277608871459961, -0.2435646802186966, -0.10405930131673813, 0.12972471117973328, 0.043990135192871094, 0.058976445347070694, -0.15474875271320343, -0.1062069982290268, 0.24713951349258423, 0.06739114224910736, -0.2781486213207245, -0.1093192994594574, -0.08712225407361984, 0.05245574936270714, -0.07566207647323608, 0.08909335732460022, 0.27778294682502747, 0.06859071552753448, 0.03897114843130112, -0.1447019726037979, 0.04662472754716873, -0.021208791062235832, 0.021370330825448036, 0.17796207964420319, -0.19344857335090637, 0.056021492928266525, 0.12420710176229477, -0.011954806745052338, -0.06555420160293579, -0.10882993042469025, -0.09443264454603195, -0.23218469321727753, -0.03928909823298454], [0.1336381435394287, 0.1450975090265274, -0.11580740660429001, -0.3582383692264557, -0.14502854645252228, -0.23655228316783905, -0.09203000366687775, 0.13503260910511017, -0.1573832780122757, -0.03525685891509056, 0.09213914722204208, 0.06736453622579575, 0.06616338342428207, 0.19513696432113647, -0.014778663404285908, -0.18474659323692322, -0.06051747128367424, 0.2954290211200714, 0.016658326610922813, -0.07098590582609177, 0.16899432241916656, 0.03387317806482315, 0.05878366529941559, 0.01777263917028904, -0.07857807725667953, 6.2687904573977e-05, 0.346881240606308, 0.011623713187873363, 0.08333266526460648, -0.2971428632736206, 0.03694716468453407, -0.14946770668029785, 0.1767345368862152, 0.07847733050584793, 0.03966076299548149, -0.06233774870634079, -0.29110535979270935, 0.07725723087787628, 0.16089163720607758, -0.1585814505815506], [-0.008301685564219952, -0.07798778265714645, -0.11558980494737625, 0.28062132000923157, -0.18847927451133728, 0.10761580616235733, -0.11703547835350037, -0.008733381517231464, -0.21272428333759308, -0.05339870974421501, -0.21602879464626312, 0.039916157722473145, 0.1911902278661728, -0.004708705935627222, -0.08667607605457306, 0.2625718116760254, 0.07833743840456009, -0.2540661692619324, -0.12663760781288147, -0.011315643787384033, 0.19012700021266937, 0.03562137484550476, -0.16022638976573944, 0.019339442253112793, -0.07245393842458725, 0.1302008330821991, -0.1487276405096054, 0.4499225318431854, -0.0553586371243, 0.14541517198085785, 0.14608724415302277, 0.1197383925318718, 0.09227559715509415, 0.04397420585155487, 0.020649012178182602, 0.16618964076042175, 0.1174432635307312, -0.003055564360693097, 0.090531125664711, -0.06663643568754196], [0.07342006266117096, 0.09162220358848572, -0.17852510511875153, -0.07399753481149673, 0.006251656915992498, -0.2492593675851822, -0.05244096368551254, 0.15962131321430206, 0.12710589170455933, -0.03955931216478348, -0.15430477261543274, 0.0016106779221445322, -0.0721132755279541, -0.011115661822259426, -0.15681572258472443, -0.18950232863426208, 0.12714837491512299, -0.132731631398201, 0.044260263442993164, 0.1731923669576645, 0.07067123055458069, 0.11927561461925507, -0.1373070925474167, -0.2017572671175003, 0.09846022725105286, -0.3377310633659363, 0.17747488617897034, -0.05328874662518501, -0.2581588327884674, 0.031364843249320984, -0.011693117208778858, -0.29116809368133545, -0.0635124072432518, 0.11980009824037552, 0.03656700253486633, -0.20301693677902222, 0.07959700375795364, -0.03767234459519386, -0.1993824988603592, -0.0443170964717865], [-0.033724043518304825, -0.14291062951087952, 0.26392555236816406, 0.365142822265625, 0.004145718179643154, -0.03358187898993492, 0.16148525476455688, -0.24865329265594482, 0.07484706491231918, 0.0482695996761322, 0.10811007022857666, -0.11957062780857086, -0.09015198796987534, 0.12322500348091125, -0.1394907832145691, 0.18659648299217224, 0.0437653549015522, 0.15792572498321533, -0.07617101073265076, 0.014633956365287304, 0.16744330525398254, -0.1871764212846756, -0.05168120563030243, -0.20879733562469482, 0.11334238201379776, 0.08160542696714401, -0.10679391026496887, 0.11421208828687668, -0.20849983394145966, -0.024694904685020447, -0.038988906890153885, -0.11338783800601959, 0.058555979281663895, -0.1084088459610939, 0.167199045419693, 0.14529716968536377, 0.09265974164009094, -0.06532006710767746, -0.11785434186458588, 0.13525046408176422], [-0.10880809277296066, 0.10936488211154938, 0.1538175344467163, -0.07157299667596817, 0.07790977507829666, -0.020194964483380318, 0.05448070168495178, -0.05993559584021568, -0.11633401364088058, -0.10043109953403473, 0.09328748285770416, -0.0849364623427391, 0.008307953365147114, 0.1748284548521042, 0.21278510987758636, 0.07344136387109756, 0.002145780250430107, -0.1922110915184021, -0.15194055438041687, 0.12901528179645538, 0.02030574344098568, -0.1860755831003189, 0.10803119838237762, 0.15413540601730347, 0.1313808411359787, -0.08645237237215042, 0.14322605729103088, -0.23776191473007202, -0.094728022813797, 0.14343062043190002, 0.03731923550367355, 0.06287164241075516, 0.08539146184921265, 0.08784548193216324, 0.2507321834564209, 0.0379335954785347, 0.09856381267309189, 0.07252629101276398, 0.05469556525349617, 0.25976523756980896], [0.014947585761547089, 0.09045695513486862, 0.3033688962459564, 0.027574095875024796, 0.08243690431118011, 0.0918472409248352, 0.13623720407485962, 0.10624242573976517, 0.03530251607298851, -0.08991870284080505, 0.10094356536865234, 0.08863629400730133, -0.03584011271595955, -0.09718159586191177, 0.11385178565979004, 0.05663251504302025, -0.2767515480518341, 0.0064272331073880196, -0.2282194048166275, 0.10441909730434418, 0.07235653698444366, -0.15561091899871826, 0.14097672700881958, 0.20784558355808258, -0.06861855834722519, -0.14336809515953064, -0.004117736592888832, 0.19271419942378998, 0.13279736042022705, -0.0009743293048813939, -0.08408543467521667, -0.2193012684583664, 0.2750593423843384, 0.08902688324451447, -0.03780464455485344, 0.09910311549901962, 0.02707241103053093, 0.0730709359049797, 0.16098320484161377, 0.013682182878255844], [-0.05170588195323944, -0.056299008429050446, 0.2265060991048813, -0.043747663497924805, 0.029113641008734703, 0.04594559594988823, 0.13575734198093414, -0.044382087886333466, 0.11548617482185364, 0.2793053090572357, -0.04792127385735512, -0.06735809892416, 0.17607374489307404, 0.10111644119024277, 0.026292383670806885, 0.08658192306756973, -0.08622007071971893, -0.1317468285560608, -0.08732012659311295, 0.14674992859363556, 0.03813119977712631, -0.18613620102405548, -0.15227743983268738, -0.1530187726020813, 0.11582968384027481, -0.007679477334022522, -0.06222224235534668, -0.13869379460811615, -0.14095477759838104, -0.00338855292648077, -0.10166707634925842, 0.006203095428645611, -0.21784257888793945, -0.12666350603103638, 0.052004627883434296, 0.15683354437351227, 0.25191473960876465, 0.013462542556226254, -0.11479408293962479, -0.004309630952775478], [-0.3321773111820221, -0.15023109316825867, -0.06119406223297119, -0.2728390097618103, 0.058712929487228394, -0.013367926701903343, 0.15307922661304474, -0.07405978441238403, 0.004568906966596842, -0.015480982139706612, -0.08988062292337418, 0.0854785144329071, -0.1329023689031601, -0.059823594987392426, -0.010748154483735561, -0.02488277480006218, -0.004380281548947096, 0.02461269684135914, -0.1544467657804489, 0.007451083976775408, 0.046297959983348846, -0.024746939539909363, 0.07640549540519714, 0.057152822613716125, -0.21403013169765472, -0.008939363062381744, 0.10983400046825409, -0.16434341669082642, 0.15208189189434052, 0.07316984981298447, -0.006949889939278364, -0.11869281530380249, -0.037030868232250214, -0.0493922121822834, -0.24101802706718445, 0.03308508172631264, 0.07676374167203903, 0.25817590951919556, 0.04113685339689255, -0.015188041143119335], [-0.14808575809001923, -0.12425187230110168, -0.11743383854627609, -0.1773148775100708, -0.21763619780540466, -0.05558452382683754, -0.01992945931851864, -0.23421937227249146, -0.20034080743789673, 0.0944041758775711, -0.07387442886829376, -0.05779515206813812, -0.17721286416053772, -0.1358833611011505, -0.1190597340464592, 0.25035685300827026, 0.2872096598148346, -0.10329072177410126, -0.09301910549402237, -0.1178382858633995, -0.1643756926059723, -0.3513166010379791, -0.0456538088619709, -0.003651387058198452, -0.09679578989744186, -0.0076326183043420315, 0.03779961168766022, -0.08794514089822769, 0.10592489689588547, -0.14435303211212158, -0.2791503667831421, 0.038005780428647995, 0.10193231701850891, 0.025403305888175964, 0.15719327330589294, 0.1931184083223343, -0.21497832238674164, 0.20142796635627747, -0.14623934030532837, 0.02062462456524372], [0.08058715611696243, -0.03724786266684532, 0.0007635037181898952, 0.01696191355586052, -0.23458904027938843, 0.09634953737258911, 0.0402359701693058, 0.16094744205474854, -0.03359074145555496, -0.04717050865292549, 0.020396633073687553, 0.04444105550646782, 0.10639237612485886, 0.17727097868919373, -0.056470926851034164, -0.2842235565185547, 0.08981481194496155, 0.26521360874176025, 0.310597687959671, 0.20817334949970245, 0.04056921601295471, 0.0033051525242626667, -0.08799752593040466, -0.1993662714958191, -0.09913483262062073, 0.05896373465657234, 0.1878906935453415, 0.02486583963036537, 0.10799159854650497, -0.19394120573997498, -0.09823982417583466, 0.06590219587087631, -0.09820084273815155, 0.2255220115184784, -0.047445621341466904, -0.17623288929462433, -0.15243765711784363, 0.24034567177295685, -0.026454444974660873, -0.035258155316114426], [-0.08704017102718353, -0.013004853390157223, 0.07593196630477905, -0.1295527219772339, -0.004374382086098194, 0.07167642563581467, 0.05469105765223503, -0.05587371438741684, 0.19316479563713074, 0.007739309221506119, 0.21840432286262512, -0.0745825469493866, -0.14590966701507568, 0.05307880416512489, -0.17740888893604279, -0.042470671236515045, -0.2407376915216446, 0.15634478628635406, 0.05254332348704338, 0.19248460233211517, -0.0584954097867012, -0.33257976174354553, 0.04089643806219101, -0.08580826222896576, 0.24267363548278809, -0.19393481314182281, -0.012470348738133907, -0.46904677152633667, 0.03771357983350754, 0.02125568315386772, -0.15022405982017517, -0.11201663315296173, -0.01981068029999733, -0.009628614410758018, 0.059545885771512985, 0.01592205837368965, -0.07964155822992325, 0.11343181133270264, -0.06429535150527954, 0.16362875699996948], [0.15898895263671875, 0.050215739756822586, 0.10346833616495132, 0.06257932633161545, 0.05400779843330383, 0.09811223298311234, 0.0504479706287384, 0.16100455820560455, -0.02508372813463211, 0.22396615147590637, 0.06770888715982437, 0.030038684606552124, 0.09856005012989044, 0.008888770826160908, -0.09328152239322662, 0.10935307294130325, -0.26276615262031555, -0.025988610461354256, -0.08720153570175171, -0.07699194550514221, 0.3633085787296295, 0.08648062497377396, -0.14786367118358612, 0.11363515257835388, -0.097896508872509, -0.0964503064751625, -0.04122449457645416, 0.11128447204828262, 0.12946344912052155, -0.20002113282680511, -0.0030299443751573563, -0.38332587480545044, 0.011949791572988033, -0.14466404914855957, 0.10194408148527145, 0.1460907906293869, -0.13688470423221588, 0.1276502013206482, -0.006969282869249582, -0.08869239687919617], [-0.08622925728559494, 0.019010167568922043, -0.2629128098487854, -0.30283060669898987, 0.06053714081645012, -0.1264326274394989, -0.19883385300636292, 0.1373622715473175, 0.08034662157297134, 0.09673576056957245, -0.048213616013526917, 0.05334869399666786, -0.0742676854133606, -0.018909428268671036, -0.13808117806911469, 0.023164905607700348, 0.06384482979774475, -0.018631188198924065, 0.11608459800481796, 0.29498690366744995, -0.0985165387392044, 0.15375657379627228, -0.024335624650120735, 0.042732320725917816, 0.06830302625894547, -0.2567419409751892, 0.2099011093378067, -0.3441592752933502, -0.05819179117679596, -0.05351986736059189, 0.1957467645406723, -0.08377858251333237, 0.049911413341760635, 0.0470489002764225, 0.10436493158340454, -0.18809735774993896, -0.16195319592952728, 0.03159426152706146, -0.021977517753839493, 0.006434959825128317], [-0.054023660719394684, -0.0702853724360466, 0.37346744537353516, 0.4101051390171051, 0.25650572776794434, -0.041770920157432556, -0.17357440292835236, -0.1963534653186798, 0.07331260293722153, 0.12350203841924667, 0.1723230928182602, -0.1182919517159462, -0.0020095021463930607, -0.02210981585085392, -0.28800591826438904, -0.028813162818551064, -0.07595180720090866, -0.07170142233371735, -0.11413140594959259, 0.15869814157485962, 0.144026517868042, -0.031418364495038986, 0.04384469985961914, 0.0016903571086004376, 0.2766622006893158, -0.02593057043850422, 0.016232118010520935, 0.18494296073913574, 0.054635293781757355, 0.14613613486289978, 0.021320583298802376, 0.08543436974287033, -0.056634366512298584, 0.01076254341751337, -0.028899697586894035, 0.10401736944913864, 0.14256958663463593, 0.02488154172897339, 0.0553768053650856, 0.17303325235843658], [-0.1552141159772873, -0.1808510422706604, -0.1907256692647934, -0.27396684885025024, 0.10992134362459183, -0.009917042218148708, -0.14826753735542297, 0.015665043145418167, 0.031220898032188416, 0.16577889025211334, -0.18716803193092346, -0.0995822548866272, 0.05261695384979248, -0.032258227467536926, 0.06569283455610275, 0.10128214955329895, -0.04971137270331383, 0.03215567395091057, -0.10177598893642426, -0.009212169796228409, 0.1783469021320343, 0.00039463318535126746, -0.2529571056365967, -0.01692618615925312, -0.19782942533493042, 0.09833566099405289, 0.18599362671375275, 0.02960936352610588, 0.014701100066304207, -0.057632435113191605, -0.0396910160779953, -0.10512653738260269, -0.13115552067756653, -0.07696627825498581, -0.06575029343366623, 0.33596405386924744, 0.021029803901910782, 0.12929226458072662, 0.11215443909168243, -0.03242501616477966], [-0.014100960455834866, 0.2196630835533142, -0.05929211154580116, -0.1298815906047821, 0.013316886499524117, -0.22377343475818634, -0.14547891914844513, 0.15504050254821777, 0.04633766785264015, -0.11497839540243149, -0.06167356297373772, 0.15996092557907104, -0.12216278165578842, -0.08893724530935287, -0.1138719767332077, -0.11876069009304047, -0.03304218128323555, 0.013645948842167854, 0.08501078188419342, 0.013815551064908504, -0.1429711878299713, -0.12978771328926086, -0.1247183158993721, -0.021334731951355934, -0.0217039342969656, -0.14156554639339447, 0.254829466342926, -0.028454026207327843, 0.06944291293621063, -0.035717837512493134, 0.016575025394558907, 0.031092185527086258, 0.14584046602249146, 0.16667765378952026, -0.10755766928195953, 0.008595081977546215, -0.2874658703804016, -0.027235716581344604, 0.09221970289945602, 0.023084139451384544], [-0.017129922285676003, 0.14496904611587524, -0.07185088098049164, 0.055267393589019775, -0.0807192251086235, 0.28952768445014954, 0.28432756662368774, -0.18618732690811157, -0.09911008924245834, -0.009424462914466858, 0.12696145474910736, -0.02846018597483635, -0.07907021790742874, -0.12178610265254974, 0.14064361155033112, 0.29931649565696716, 0.07349734753370285, -0.24431799352169037, -0.08733139932155609, -0.056253980845212936, 0.0562698170542717, -0.11785821616649628, 0.11897210776805878, 0.16501043736934662, 0.17875783145427704, -0.01789262890815735, -0.014529872685670853, -0.0388169102370739, -0.05967729911208153, 0.17892484366893768, 0.1294640153646469, -0.18162228167057037, 0.1405380666255951, 0.08121110498905182, 0.06261622160673141, 0.22645720839500427, 0.05467383936047554, -0.06550054252147675, -0.1765768826007843, 0.17265447974205017], [0.0020961312111467123, 0.025355035439133644, -0.09137362986803055, -0.12975627183914185, 0.11597423255443573, -0.06317730993032455, -0.0898544192314148, -0.021961765363812447, 0.18826532363891602, 0.04326764866709709, -0.15341970324516296, 0.0785779282450676, -0.07389424741268158, -0.14484043419361115, 0.20605312287807465, -0.004720719996839762, 0.04081784188747406, -0.16506098210811615, 0.0690857544541359, 0.08233234286308289, -0.0992923229932785, 0.04232487082481384, -0.11867249757051468, -0.1245286837220192, 0.1919754147529602, -0.10005513578653336, 0.19891247153282166, -0.4489399194717407, -0.14312744140625, 0.028789475560188293, 0.29269349575042725, -0.21376237273216248, 0.09806060045957565, -0.13084134459495544, -0.033604156225919724, -0.1473645120859146, 0.15897999703884125, -0.07110084593296051, -0.12107878178358078, 0.19270627200603485], [0.028101231902837753, 0.15612788498401642, 0.02690912038087845, 0.0946277379989624, 0.11933818459510803, 0.10266758501529694, 0.10833239555358887, 0.07684998959302902, 0.010510435327887535, 0.19902129471302032, 0.13617226481437683, -0.1977849304676056, 0.04545555263757706, 0.18552838265895844, 0.13439686596393585, -0.2432103157043457, -0.06025782972574234, -0.017771704122424126, 0.12593837082386017, 0.09613850712776184, 0.061494600027799606, 0.07456253468990326, 0.13075768947601318, -0.04230127111077309, 0.10409490019083023, -0.08733466267585754, 0.14047612249851227, -0.07120700925588608, -0.27660730481147766, 0.15863077342510223, -0.0513494573533535, 0.15500257909297943, -0.27958521246910095, -0.05046246200799942, 0.01692550629377365, -0.023157481104135513, 0.2143990695476532, -0.17591384053230286, -0.0260467529296875, 0.060319412499666214], [0.17443129420280457, 0.21155032515525818, 0.05527625232934952, -0.5696896314620972, 0.24112486839294434, -0.031955279409885406, 0.002490823157131672, -0.08134260028600693, 0.24987460672855377, 0.26613396406173706, 0.06122244894504547, -0.04296382516622543, -0.11548017710447311, -0.17657923698425293, 0.17785587906837463, -0.19228602945804596, -0.24726362526416779, 0.0009980014292523265, -0.18232370913028717, 0.052247047424316406, -0.04484160989522934, -0.0036606076173484325, -0.057309217751026154, 0.18554870784282684, 0.08263945579528809, -0.23068834841251373, 0.06050602346658707, -0.11775431782007217, 0.1986452043056488, -0.2603212296962738, 0.04018713906407356, -0.08216903358697891, -0.020600924268364906, 0.15867796540260315, -0.15565986931324005, 0.012451074086129665, -0.02367028407752514, 0.09965471923351288, 0.2513450086116791, 0.015954189002513885], [-0.17580772936344147, 0.04730924591422081, -0.34223899245262146, -0.09391359239816666, -0.11298976093530655, 0.07605522871017456, -0.1378438025712967, 0.15311574935913086, 0.03301606699824333, -0.13002246618270874, 0.020454229786992073, 0.16058236360549927, 0.08320482820272446, 0.042833924293518066, -0.2962540090084076, -0.062417685985565186, -0.09269585460424423, 0.04795381799340248, 0.08215601742267609, -0.1622883528470993, 0.14241786301136017, -0.01552482321858406, 0.1933487355709076, 0.009799548424780369, -0.06851191073656082, 0.07880774885416031, 0.036904267966747284, -0.1532016545534134, 0.0013037644093856215, 0.1343008428812027, 0.040971800684928894, -0.012855010107159615, 0.012125736102461815, 0.25395652651786804, -0.09186854958534241, -0.13796676695346832, -0.04388395696878433, 0.0026691064704209566, 0.07806384563446045, 0.003850027220323682], [-0.011293727904558182, -0.15627673268318176, 0.031358569860458374, -0.22363829612731934, 0.2154570370912552, 0.013140538707375526, 0.03198940306901932, -0.15556052327156067, 0.06531266868114471, -0.07869983464479446, -0.11355122923851013, -0.04048479348421097, -0.047203972935676575, -0.022439856082201004, 0.16088798642158508, 0.06883750110864639, 0.026026912033557892, -0.05072234943509102, -0.208851620554924, 0.12605102360248566, -0.27663305401802063, 0.1627405881881714, -0.12266884744167328, 0.010970915667712688, 0.02875375561416149, 0.12515521049499512, -0.0670350044965744, -0.05886687710881233, -0.26136264204978943, 0.12940987944602966, 0.08542483299970627, 0.03878434747457504, -0.1684984564781189, -0.19141951203346252, 0.11310684680938721, 0.23408007621765137, 0.07538139820098877, -0.2787141501903534, 0.30994555354118347, 0.022516390308737755], [-0.05995441973209381, 0.13585834205150604, -0.042785514146089554, -0.10706108063459396, -0.07983119040727615, -0.0368984155356884, -0.09705616533756256, 0.018751749768853188, 0.04157843068242073, -0.1391555368900299, 0.23812560737133026, 0.007503877393901348, -0.1143907681107521, 0.0009616764727979898, -0.22581619024276733, 0.005243510939180851, 0.1057080402970314, 0.10338523983955383, 0.11935921758413315, 0.06931585818529129, 0.13154330849647522, -0.11084593087434769, 0.23172956705093384, -0.06421494483947754, 0.1429101824760437, -0.043317802250385284, -0.016977299004793167, -0.07771329581737518, 0.09230760484933853, 0.09782783687114716, -0.009466432966291904, -0.13273151218891144, 0.14950920641422272, 0.2642291784286499, 0.002179855015128851, -0.07019147276878357, -0.23914575576782227, -0.10094556212425232, -0.10910341143608093, 0.10584888607263565], [0.2557275891304016, 0.15877865254878998, 0.2217608243227005, 0.0766373947262764, 0.0817611813545227, 0.15617410838603973, -0.15369710326194763, 0.1529981791973114, 0.04599565640091896, 0.2561129927635193, 0.04825504869222641, 0.004589869640767574, 0.1694263517856598, 0.03005610965192318, 0.23358286917209625, -0.07032312452793121, -0.10969745367765427, 0.17501042783260345, 0.12074677646160126, -0.11866802722215652, -0.04524460807442665, 0.4417661726474762, -0.024249838665127754, 0.21207398176193237, -0.22222423553466797, 0.20328916609287262, -0.04353778064250946, 0.18906857073307037, 0.04730454087257385, -0.07552242279052734, 0.14435932040214539, 0.19869224727153778, -0.07486818730831146, -0.21067452430725098, -0.0835837572813034, -0.15855011343955994, -0.0985410138964653, -0.07719723135232925, 0.27400732040405273, -0.16304843127727509], [-0.01325148157775402, 0.05265180021524429, 0.029396044090390205, 0.025067532435059547, 0.009917434304952621, -0.17240749299526215, -0.18403159081935883, 0.0737278088927269, -0.21944640576839447, 0.011414479464292526, -0.09927450865507126, -0.09223286062479019, 0.10490675270557404, 0.2631417214870453, 0.05640120431780815, -0.04482989385724068, -0.24383679032325745, 0.15107324719429016, -0.08616084605455399, 0.010477614589035511, 0.11650653928518295, 0.06320430338382721, -0.03732536733150482, -0.05685804784297943, -0.1804264932870865, -0.04475383087992668, 0.0737014189362526, 0.14061926305294037, -0.09888814389705658, -0.07098822295665741, 0.005760695785284042, -0.037264134734869, -0.056797485798597336, 0.0699191689491272, -0.07282678037881851, 0.07016120105981827, -0.08903123438358307, 0.07187078148126602, 0.09002527594566345, -0.21466360986232758], [-0.17636175453662872, -0.0380706787109375, 0.16656813025474548, -0.061125174164772034, -0.13621066510677338, -0.3739475905895233, -0.026885367929935455, -0.02591121941804886, -0.11037740856409073, -0.17211787402629852, -0.17030128836631775, -0.2194453626871109, -0.1876436173915863, -0.038490377366542816, 0.11267214268445969, 0.022090665996074677, -0.12166276574134827, -0.2794131636619568, -0.1591452956199646, -0.02640722505748272, -0.030293136835098267, -0.23020240664482117, -0.10390256345272064, 0.061552826315164566, -0.23439787328243256, -0.11143148690462112, -0.013399694114923477, 0.17002595961093903, -0.15524549782276154, -0.0032991438638418913, -0.23213472962379456, -0.10648539662361145, -0.10445796698331833, -0.09698471426963806, -0.10750360041856766, 0.09110656380653381, -0.14387287199497223, -0.19895082712173462, 0.04442215338349342, -0.22559410333633423], [-0.1510128527879715, -0.04047640413045883, -0.1519608050584793, 0.23082420229911804, -0.17493407428264618, -0.0315178781747818, -0.06125485152006149, 0.1984008252620697, -0.1721087098121643, -0.08403237909078598, -0.09138856083154678, 0.25711002945899963, 0.0728197991847992, -0.056823406368494034, -0.35706526041030884, 0.10406705737113953, 0.26792505383491516, -0.14516478776931763, -0.2452867329120636, 0.038970984518527985, 0.10600917041301727, 0.22385641932487488, -0.06264150887727737, -0.04900568723678589, -0.06291874498128891, -0.03757866099476814, -0.11729314178228378, 0.3912535309791565, -0.022385215386748314, 0.1084899976849556, 0.1320096105337143, -0.08086485415697098, 0.17708604037761688, 0.03474855795502663, -0.07948118448257446, -0.12936337292194366, 0.06392894685268402, -0.0007882057689130306, -0.13378123939037323, -0.029833730310201645], [-0.031004343181848526, 0.011873900890350342, 0.08997342735528946, 0.2774590849876404, -0.2623074948787689, -0.10662182420492172, 0.019950760528445244, 0.1437295526266098, -0.32545727491378784, -0.2545146644115448, -0.06366179883480072, -0.004161184653639793, 0.13692522048950195, 0.04738226532936096, -0.15504665672779083, 0.2311272919178009, 0.0355769582092762, 0.10287410765886307, -0.06114419549703598, -0.14619332551956177, 0.2040162980556488, -0.009670211002230644, 0.1440953016281128, 0.014995682053267956, -0.19882449507713318, 0.11428701132535934, -0.007869980297982693, 0.4243380129337311, 0.0009897042764350772, -0.21187499165534973, -0.024255137890577316, -0.07050253450870514, 0.09317722171545029, 0.25129878520965576, -0.14130158722400665, 0.05103407800197601, -0.22665804624557495, -0.12051956355571747, -0.006844546180218458, -0.2329188883304596], [0.01439101342111826, 0.025377986952662468, 0.2730446755886078, 0.2347300797700882, -0.05413425341248512, -0.11150584369897842, -0.15784654021263123, -0.25327277183532715, -0.10387071222066879, -0.09580335021018982, 0.007924499921500683, -0.18465058505535126, -0.17707383632659912, -0.13494981825351715, -0.07733120024204254, -0.21175134181976318, -0.10449930280447006, 0.05222995579242706, 0.05674944445490837, -0.1735931783914566, 2.89105337287765e-05, -0.09853542596101761, -0.05032099410891533, -0.02386873960494995, -0.10214598476886749, -0.08715514838695526, -0.14053559303283691, 0.21955187618732452, 0.047999922186136246, -0.0057991789653897285, -0.06809648126363754, 0.05141037330031395, -0.1946001648902893, -0.13906320929527283, -0.2123899757862091, -0.08311580121517181, -0.020711831748485565, 0.1059952899813652, -0.16520512104034424, -0.09167217463254929], [-0.39361950755119324, -0.15801461040973663, -0.12505826354026794, 0.2327926605939865, -0.06471176445484161, 0.12272355705499649, -0.07765413820743561, -0.041192807257175446, -0.015017236582934856, -0.1957700401544571, 0.10941901057958603, 0.052849166095256805, -0.15062206983566284, -0.12423272430896759, -0.24480977654457092, -0.07189648598432541, 0.010998915880918503, 0.06725730001926422, 0.16598613560199738, -0.05407686531543732, -0.06348665803670883, 0.02839059941470623, 0.1822623759508133, 0.026839381083846092, 0.03371075913310051, -0.06158319488167763, -0.01805085875093937, -0.10627496987581253, -0.04064834117889404, 0.0891595259308815, 0.04241225868463516, 0.03773318603634834, 0.2023426741361618, -0.038674697279930115, -0.09706886857748032, -0.17708055675029755, 0.11721944808959961, -0.06193728372454643, -0.2262926697731018, 0.0852067694067955], [0.13853180408477783, -0.23382975161075592, -0.07786630094051361, -0.09861499816179276, -0.020604243502020836, 0.11387187242507935, 0.3937676250934601, -0.0272626094520092, -0.10922481119632721, -0.027272971346974373, 0.051398683339357376, 0.021953241899609566, 0.08994154632091522, -0.03623472899198532, 0.1335574835538864, 0.059583019465208054, -0.051878672093153, 0.17718560993671417, -0.17889870703220367, 0.18010888993740082, 0.25119081139564514, -0.2870562970638275, 0.03455573692917824, -0.01817023567855358, -0.19337983429431915, -0.013401946052908897, 0.005669230595231056, 0.12022794783115387, -0.030407870188355446, -0.08193838596343994, -0.1873358190059662, -0.37736594676971436, -0.09557478129863739, 0.16097421944141388, -0.03775043413043022, 0.3180842995643616, 0.05168730765581131, 0.023196445778012276, -0.24887894093990326, -0.2948436439037323], [-0.17508503794670105, -0.11257609724998474, -0.23748955130577087, 0.29671356081962585, -0.06858210265636444, -0.05551241338253021, -0.0834524929523468, 0.26307258009910583, 0.052254412323236465, -0.12239247560501099, -0.2236715704202652, 0.3078190088272095, 0.056339818984270096, -0.05531478300690651, 0.052858494222164154, 0.11596408486366272, 0.23544755578041077, -0.050255369395017624, -0.13099150359630585, 0.26764991879463196, 0.07925299555063248, 0.12500907480716705, -0.3478679358959198, -0.07188829779624939, -0.02925301529467106, -0.08139738440513611, 0.019097505137324333, 0.3022540807723999, 0.044310130178928375, 0.17558035254478455, 0.0010700835846364498, 0.06083468720316887, 0.12185588479042053, 0.11261198669672012, -0.0880473256111145, -0.028941897675395012, 0.30413153767585754, 0.16074630618095398, -0.1527547538280487, 0.07099895924329758], [0.02831503190100193, 0.28817272186279297, -0.005799099802970886, -0.36844778060913086, 0.07639383524656296, -0.05502832680940628, -0.031779270619153976, 0.010167879983782768, -0.12688837945461273, -0.06815659999847412, 0.08484025299549103, -0.1273230016231537, 0.013784351758658886, -0.07561833411455154, 0.08867114037275314, -0.03566138446331024, -0.25600147247314453, -0.09646429121494293, -0.08134868741035461, -0.10279150307178497, -0.09202953428030014, -0.1848601996898651, 0.005152387544512749, -0.03212368115782738, -0.090827576816082, -0.3420705199241638, 0.04747338965535164, -0.1739232987165451, 0.21572977304458618, -0.03513111174106598, -0.12731021642684937, -0.13387459516525269, -0.057025957852602005, 0.1626013070344925, 0.006132092792540789, 0.09666567295789719, -0.09228600561618805, 0.25335195660591125, -0.14927901327610016, -0.11870606988668442], [0.07289355993270874, 0.03838386759161949, 0.1673283874988556, -0.045028477907180786, 0.07453003525733948, 0.18560980260372162, -0.07023890316486359, -0.11277937144041061, 0.18435850739479065, 0.13550464808940887, 0.11663222312927246, 0.20590278506278992, -0.1205512210726738, -0.08766738325357437, -0.0207317303866148, 0.029356030747294426, 0.09657618403434753, 0.13544034957885742, 0.2796923518180847, 0.05127345025539398, -0.13797833025455475, -0.00825280137360096, -0.18529550731182098, -0.12683740258216858, 0.09126967191696167, -0.0814615935087204, -0.04439511150121689, -0.345567911863327, 0.08897270262241364, -0.04005813226103783, 0.0887352004647255, 0.12965399026870728, -0.03300658240914345, -0.2786819040775299, 0.14154624938964844, 0.00661924434825778, -0.12862421572208405, 0.07528526335954666, -0.26976919174194336, 0.13754691183567047], [-0.0387667678296566, 0.08351019769906998, 0.42477285861968994, 0.20109517872333527, -0.004922571126371622, 0.02831076644361019, -0.10114183276891708, -0.14475946128368378, 0.1804339736700058, 0.0579986497759819, 0.22765013575553894, -0.15522164106369019, -0.14937499165534973, -0.1596015989780426, -0.2509840428829193, -0.02450639195740223, -0.15333740413188934, -0.06860315054655075, 0.02601717971265316, -0.21317315101623535, -0.020815929397940636, -0.12873579561710358, 0.11417247354984283, 0.015306844376027584, 0.0667257010936737, 0.0847054198384285, 0.13003689050674438, 0.08184155076742172, 0.20841899514198303, -0.09154738485813141, 0.17427244782447815, 0.1504005640745163, -0.10851448774337769, -0.10695361346006393, -0.09617334604263306, -0.07154113054275513, -0.23127345740795135, 0.2708086669445038, 0.05858377367258072, 0.24058981239795685], [-0.17036865651607513, -0.07109764963388443, -0.2847013771533966, -0.30557748675346375, 0.04468320310115814, -0.08614897727966309, -0.11308518797159195, 0.11305397003889084, 0.06834038347005844, -0.15437467396259308, -0.11770133674144745, 0.11220433562994003, -0.015202284790575504, -0.1700235903263092, -0.15379123389720917, -0.15406663715839386, -0.11803924292325974, -0.13415522873401642, -0.06183994188904762, 0.017740659415721893, -0.3126389682292938, 0.08794192224740982, -0.09045246243476868, 0.025260567665100098, -0.20195120573043823, -0.04966142028570175, 0.04267551749944687, -0.05992470681667328, 0.05328119546175003, -0.022945743054151535, 0.06261204928159714, 0.05495836213231087, -0.08389737457036972, -0.169418066740036, -0.03825567290186882, -0.0946509838104248, -0.19296561181545258, 0.09496466815471649, 0.2768555283546448, -0.12218765169382095], [-0.18588471412658691, 0.04354808107018471, 0.37313807010650635, 0.20123326778411865, -0.05054061487317085, 0.021314023062586784, 0.015599529258906841, -0.13459597527980804, -0.06490995734930038, -0.06353901326656342, 0.03619235381484032, -0.016529317945241928, -0.06311114877462387, 0.08293000608682632, 0.0339743047952652, 0.19123248755931854, -0.09104213118553162, -0.10239922255277634, 0.07771757990121841, 0.18539981544017792, -0.1808469295501709, -0.03138522431254387, 0.23131345212459564, 0.018580486997961998, 0.04670882225036621, -0.10525694489479065, -0.07805009931325912, 0.5658494234085083, -0.10834334045648575, 0.08157019317150116, 0.0005403272807598114, 0.038361646234989166, 0.24154244363307953, 0.0705309510231018, 0.08063597977161407, -0.0055767507292330265, 0.061910949647426605, -0.06688081473112106, 0.04077832028269768, 0.11379190534353256], [0.21268585324287415, 0.07063278555870056, 0.03245259076356888, 0.09465878456830978, -0.0561104454100132, 0.13614219427108765, 0.3263775110244751, -0.04879157990217209, 0.12935303151607513, 0.20150363445281982, 0.11418764293193817, -0.09336786717176437, -0.053362105041742325, 0.0934327021241188, 0.15877331793308258, -0.202616885304451, -0.009782995097339153, 0.14382576942443848, 0.20790472626686096, 0.17432618141174316, 0.0033374771010130644, -0.13685639202594757, -0.0031866165809333324, -0.08150511980056763, 0.03435501828789711, -0.048121627420186996, 0.046734027564525604, -0.034321703016757965, -0.017841022461652756, -0.052464570850133896, -0.21178530156612396, -0.05865287408232689, -0.08574076741933823, 0.0293867364525795, 0.0075652808882296085, 0.11673527956008911, 0.1133943721652031, -0.07872343063354492, -0.23980864882469177, -0.03497998043894768], [-0.12071298807859421, 0.07477600872516632, -0.05208952724933624, 0.04473070800304413, -0.06992946565151215, -0.13288401067256927, -0.1677376627922058, 0.19574588537216187, -0.2389683872461319, -0.07054456323385239, -0.2155437022447586, 0.11751077324151993, 0.07965542376041412, -0.06367471814155579, 0.06290947645902634, 0.06321357935667038, 0.020709147676825523, -0.15157002210617065, -0.06909558176994324, -0.0021862173452973366, -0.03867517039179802, 0.17765891551971436, -0.05324144661426544, 0.19549612700939178, -0.2249947041273117, -0.1584823876619339, 0.04323147237300873, 0.21365244686603546, 0.08120780438184738, 0.1548214703798294, 0.04556524381041527, -0.12925194203853607, 0.14565765857696533, 0.22418074309825897, 0.1204378753900528, -0.14797040820121765, 0.11537148058414459, -0.03857585787773132, 0.026201127097010612, -0.007686660625040531], [0.06239287182688713, -0.007764048874378204, -0.12223539501428604, 0.07935693860054016, 0.030497649684548378, 0.14154352247714996, -0.0732165053486824, 0.01135838683694601, -0.013324628584086895, -0.03201315551996231, -0.04867291450500488, 0.1448386162519455, -0.06691637635231018, -0.11961773037910461, 0.06492604315280914, -0.08974611759185791, 0.10102671384811401, 0.10270730406045914, 0.06633330136537552, -0.10586385428905487, -0.17614661157131195, 0.19077260792255402, -0.060292575508356094, 0.007972563616931438, -0.06569882482290268, 0.07508333027362823, -0.06686761975288391, 0.0018267049454152584, 0.16772346198558807, 0.030586401000618935, 0.09892314672470093, 0.08879490196704865, 0.02566850371658802, -0.033216506242752075, -0.054253216832876205, -0.19810257852077484, -0.044169872999191284, 0.10936421155929565, -0.05437105894088745, 0.10663198679685593]]}}, "bias_initializer": {"class_name": "Constant", "config": {"value": [0.026842264458537102, 0.04421781003475189, -0.2980137765407562, -0.5496677756309509, -0.04157377779483795, -0.08366534113883972, -0.07627496868371964, -0.02438872493803501, -0.012544512748718262, -0.02171127125620842, -0.005035447422415018, -0.10120364278554916, 0.024693436920642853, 0.0008165667532011867, -0.05590901896357536, -0.1865241527557373, 0.05607223138213158, 0.01904810592532158, -0.009520305320620537, -0.09113200008869171, -0.008525094948709011, 0.0380551852285862, -0.03363392502069473, -0.0447705052793026, 0.0014332988066598773, 0.06613137573003769, 0.04563819617033005, -0.5935913920402527, -0.026439176872372627, -0.03288857638835907, -0.018852027133107185, 0.08032526820898056, -0.06702447682619095, -0.05513470619916916, -0.011687718331813812, -0.07243909686803818, -0.09483247995376587, 0.01489817351102829, -0.07293248176574707, -0.06690967828035355]}}, "kernel_regularizer": null, "bias_regularizer": null, "activity_regularizer": null, "kernel_constraint": null, "bias_constraint": null}, "name": "dense_10", "inbound_nodes": [[["y2", 0, 0, {}]]]}], "input_layers": [["y2", 0, 0]], "output_layers": [["dense_10", 0, 0]]}}}, "weightsManifest": [{"paths": ["group1-shard1of1.bin"], "weights": [{"name": "dense_10/kernel", "shape": [100, 40], "dtype": "float32"}, {"name": "dense_10/bias", "shape": [40], "dtype": "float32"}]}]}