{"format": "layers-model", "generatedBy": "keras v2.12.0", "convertedBy": "TensorFlow.js Converter v4.6.0", "modelTopology": {"keras_version": "2.12.0", "backend": "tensorflow", "model_config": {"class_name": "Functional", "config": {"name": "model_12", "trainable": true, "layers": [{"class_name": "InputLayer", "config": {"batch_input_shape": [null, 40], "dtype": "float32", "sparse": false, "ragged": false, "name": "pcs_out_1"}, "name": "pcs_out_1", "inbound_nodes": []}, {"class_name": "Dense", "config": {"name": "dense_12", "trainable": true, "dtype": "float32", "units": 12, "activation": "linear", "use_bias": true, "kernel_initializer": {"class_name": "Constant", "config": {"value": [[-0.540474534034729, -0.021678194403648376, -0.07152801752090454, -0.047939881682395935, 0.1280975043773651, -0.5214253664016724, -0.0034220977686345577, -0.18325918912887573, -0.04209345579147339, 0.09493974596261978, -0.2874401807785034, 0.07695088535547256], [-0.528801679611206, -0.006671931594610214, -0.22754158079624176, 0.12266187369823456, 0.1453840285539627, -0.2017131894826889, 0.1115550547838211, -0.546841025352478, 0.05343307927250862, -0.03199279308319092, 0.0036953503731638193, 0.28150293231010437], [0.1402401179075241, 0.2717873752117157, 0.29864880442619324, 0.02043682336807251, 0.1611858606338501, 0.5073754787445068, 0.061664026230573654, 0.2281699925661087, 0.3664792776107788, -0.0032025850377976894, 0.19846656918525696, 0.40281566977500916], [0.42690545320510864, 0.07641535252332687, 0.48941856622695923, -0.22431041300296783, 1.1108317375183105, -0.014639665372669697, 0.013854218646883965, 0.521591067314148, 0.08535774052143097, 0.27748212218284607, 0.16531741619110107, 0.28684166073799133], [0.17983683943748474, 0.1486944854259491, -0.20259127020835876, -0.6763544082641602, 0.5975267291069031, -0.5258132815361023, -0.004329982679337263, 0.1806386262178421, -0.16687028110027313, 0.011778315529227257, 0.09044584631919861, -0.11699648946523666], [-0.12283426523208618, 0.13577549159526825, 0.03143052011728287, -0.399213045835495, -0.10950688272714615, -0.008822372183203697, 0.1020582914352417, -0.3399417996406555, -0.5642867684364319, 0.3729293942451477, -0.15719464421272278, -0.44079169631004333], [0.049014944583177567, 0.07202300429344177, 0.14107583463191986, -0.17926280200481415, -0.0007441809866577387, -0.13653887808322906, 0.10927379131317139, -0.0332261361181736, -0.4720001518726349, 0.48949065804481506, -0.614291787147522, -0.12597797811031342], [-0.5917491316795349, -0.03863103687763214, 0.051145195960998535, -0.11205870658159256, -0.033914096653461456, 0.06601110100746155, -0.13849712908267975, 0.03894242271780968, 0.06383886188268661, -0.2995279133319855, -0.5101394057273865, 0.534611165523529], [-0.0811171606183052, 0.18256492912769318, -0.43371668457984924, -0.16979998350143433, 0.22417688369750977, -0.42184069752693176, -0.05588174983859062, 0.14568638801574707, -0.3501007854938507, -0.1758718192577362, 0.1672830432653427, -0.39448681473731995], [0.17208009958267212, -0.05856333673000336, -0.35396966338157654, 0.02179674804210663, 0.10342004895210266, -0.11255286633968353, -0.5714335441589355, 0.16555197536945343, -0.30944520235061646, 0.005972098093479872, 0.045773185789585114, -0.48195698857307434], [-0.06149996817111969, 0.0046322522684931755, -0.014727783389389515, 0.05674001947045326, -0.1442275196313858, -0.4871150255203247, 0.6324067711830139, -0.5807924270629883, -0.23391267657279968, 0.14359444379806519, 0.03647041693329811, 0.0021762109827250242], [-0.369040310382843, -0.1376522183418274, 0.27142980694770813, -0.6188328862190247, -0.17242154479026794, 0.17030875384807587, -0.26787328720092773, 0.009797378443181515, -0.021105926483869553, -0.18733471632003784, -0.18383832275867462, 0.14620071649551392], [0.24115698039531708, -0.0027626119554042816, -0.5174092650413513, 0.20804156363010406, -0.367642343044281, 0.18209950625896454, -0.04676012322306633, -0.5785976648330688, 0.3424428105354309, -0.011057793162763119, -0.44356897473335266, 0.09723901003599167], [0.15661945939064026, -0.16872882843017578, -0.4920237064361572, 0.8245265483856201, -0.5380794405937195, -0.21884773671627045, 0.14476770162582397, 0.13615000247955322, 0.17053616046905518, -0.06181662157177925, 0.0029221861623227596, 0.032611094415187836], [-0.22492654621601105, 0.03383326157927513, 0.004358433652669191, -0.3033415973186493, 0.2769787609577179, -0.5043279528617859, -0.10077524185180664, 0.03294989839196205, 0.015444949269294739, 0.12762320041656494, -0.5240581631660461, 0.05741281434893608], [0.11548002809286118, -0.4439096748828888, 0.16631142795085907, -0.012938353233039379, -0.2775392234325409, 0.45938748121261597, -0.33570677042007446, -0.212915301322937, -0.005564921069890261, 0.2239236980676651, 0.15744292736053467, -0.3372959494590759], [-0.09790104627609253, 0.064109206199646, 0.08064822107553482, -0.018490521237254143, -0.6430345773696899, 0.26570287346839905, -0.5360161066055298, 0.042319003492593765, 0.07790450751781464, -0.22203585505485535, 0.07412324100732803, -0.07986611127853394], [0.02102052792906761, -0.3448992371559143, -0.23442161083221436, 0.22081546485424042, -0.39818617701530457, -0.4377935230731964, 0.15791156888008118, -0.16081422567367554, -0.1500083953142166, -0.026730084791779518, -0.1978844255208969, -0.11161907762289047], [-0.26581016182899475, -0.10549668967723846, -0.1210218146443367, 0.19390247762203217, -0.5305271744728088, -0.14482858777046204, 0.030092597007751465, -0.09083019196987152, -0.1084333285689354, -0.5646705031394958, 0.2765769362449646, -0.2090703696012497], [-0.3370950520038605, 0.3053995668888092, 0.08297494798898697, 0.2363060712814331, -0.02868044190108776, -0.1508619338274002, -0.4162651598453522, 0.6893018484115601, -0.4709177613258362, 0.06142125278711319, 0.056698378175497055, 0.04647757112979889], [0.08789970725774765, -0.2977488040924072, -0.27769914269447327, 0.467745840549469, -0.31687456369400024, 0.38870641589164734, 0.09523654729127884, -0.24345341324806213, -0.3592303395271301, 0.4415813684463501, -0.2657981812953949, 0.3684123158454895], [-0.23166567087173462, 0.030065685510635376, -0.06687715649604797, -0.15316861867904663, -0.01030249148607254, 0.06467530131340027, -0.31260180473327637, -0.46046069264411926, 0.357369989156723, -0.4162155091762543, -0.15294167399406433, 0.11781836301088333], [0.2081041932106018, -0.14169307053089142, 0.3562604784965515, -0.031594015657901764, -0.3266110420227051, -0.5021602511405945, 0.766912043094635, -0.30594247579574585, -0.1706179678440094, 0.19481296837329865, -0.008983469568192959, -0.06506812572479248], [0.028770025819540024, -0.16678622364997864, 0.5515912175178528, -0.09437742829322815, 0.2557106614112854, -0.33607640862464905, 0.12630215287208557, -0.31614166498184204, 0.3755904734134674, 0.17475484311580658, -0.15238498151302338, 0.15363551676273346], [-0.5078378915786743, 0.32365021109580994, -0.5488181114196777, 0.13417492806911469, 0.07711569219827652, -0.26667720079421997, 0.30074644088745117, -0.061070192605257034, -0.26784253120422363, 0.0035688031930476427, 0.2562611997127533, -0.07515641301870346], [0.29173579812049866, -0.35772526264190674, 0.027640577405691147, 0.03120909444987774, -0.3936775326728821, 0.09018929302692413, 0.04207771643996239, -0.31232497096061707, 0.16608452796936035, 0.04020184278488159, -0.20959150791168213, -0.6392703652381897], [0.031866006553173065, -0.4270361065864563, 0.059215281158685684, 0.03274872153997421, 0.11744169145822525, -0.2451128512620926, -0.31461378931999207, 0.5378481149673462, -0.1878829449415207, -0.41404545307159424, 0.005529850255697966, 0.3779117166996002], [0.09454819560050964, 0.6468279957771301, -0.1503843069076538, 0.2846441864967346, 0.5956346988677979, -0.11327964812517166, 0.24189460277557373, 0.6003543734550476, 0.029185296967625618, 0.10393866896629333, 0.9257263541221619, -0.10172072798013687], [0.0906158909201622, -0.4963507056236267, 0.09719757735729218, -0.5057320594787598, -0.0021174075081944466, -0.04149973392486572, -0.11973001062870026, 0.10754092782735825, -0.4240756034851074, -0.04546915739774704, -0.04043973237276077, -0.048186466097831726], [-0.21939826011657715, 0.6388264894485474, -0.45981886982917786, -0.1647188365459442, -0.2254193276166916, 0.31849032640457153, 0.13168185949325562, -0.21797271072864532, 0.1867237538099289, -0.45939335227012634, 0.16728901863098145, 0.0963309109210968], [-0.4133041501045227, 0.06515372544527054, 0.1328011453151703, -0.369276225566864, 0.17613667249679565, 0.16471709311008453, -0.06945063173770905, -0.501397967338562, 0.2825976610183716, -0.5205404758453369, 0.31116896867752075, -0.022819628939032555], [0.03705384582281113, 0.11268044263124466, -0.44851407408714294, 0.04320375993847847, -0.26761436462402344, 0.002217825036495924, 0.043607842177152634, -0.15650339424610138, 0.16839168965816498, -0.6006933450698853, -0.03713330626487732, -0.1436147838830948], [-0.2872641086578369, -0.4679693877696991, 0.6364301443099976, -0.4281517267227173, -0.21665841341018677, 0.35571351647377014, -0.22679167985916138, 0.02083529345691204, 0.1325240433216095, -0.06574448943138123, 0.27981922030448914, 0.09118278324604034], [-0.22874373197555542, -0.30986806750297546, 0.4583282768726349, -0.1804967075586319, -0.2137068212032318, -0.004810864105820656, 0.28989923000335693, 0.21882157027721405, -0.24735017120838165, -0.024963106960058212, -0.48555395007133484, 0.41110822558403015], [0.05755778029561043, -0.08812087029218674, 0.07564550638198853, 0.24121613800525665, -0.24515996873378754, -0.016123611479997635, -0.3038107752799988, 0.14586563408374786, -0.0027994345873594284, -0.13527360558509827, 0.29040464758872986, -0.6098946928977966], [0.5453625917434692, -0.4301726818084717, -0.13307644426822662, 0.019765127450227737, 0.11897947639226913, 0.18453149497509003, -0.13522808253765106, -0.005602165125310421, -0.3624217212200165, 0.26263561844825745, -0.23821121454238892, -0.2690279185771942], [-0.23601993918418884, 0.581901490688324, -0.4747982919216156, -0.2987770438194275, 0.17119905352592468, 0.2547764778137207, -0.2969508171081543, -0.0353192575275898, 0.19291475415229797, 0.3261856436729431, -0.25511980056762695, -0.128882497549057], [0.13072147965431213, -0.48710036277770996, 0.02223382517695427, -0.19923551380634308, -0.00030839184182696044, 0.028724169358611107, -0.3272712826728821, 0.18145187199115753, -0.5915918350219727, -0.04681749269366264, 0.028241673484444618, -0.07988359034061432], [0.5405969619750977, -0.3833019733428955, -0.19267860054969788, 0.15993794798851013, 0.3739020824432373, -0.284080445766449, -0.0263132955878973, 0.014529780484735966, 0.5779238939285278, -0.4517170488834381, -0.16015668213367462, -0.0897260382771492], [-0.23753753304481506, 0.20538748800754547, 0.05491691455245018, -0.008612154982984066, 0.027126016095280647, 0.03740852326154709, 0.131224125623703, 0.06590483337640762, -0.21511860191822052, -0.4130784869194031, 0.7373171448707581, -0.5616300106048584]]}}, "bias_initializer": {"class_name": "Constant", "config": {"value": [-0.7604324221611023, -0.7567602396011353, -0.8297842741012573, -0.8607364892959595, -0.7149125933647156, -0.7623437643051147, -0.7984375357627869, -0.7673250436782837, -0.789497971534729, -0.8310815095901489, -0.8049083352088928, -0.8096845746040344]}}, "kernel_regularizer": null, "bias_regularizer": null, "activity_regularizer": null, "kernel_constraint": null, "bias_constraint": null}, "name": "dense_12", "inbound_nodes": [[["pcs_out_1", 0, 0, {}]]]}], "input_layers": [["pcs_out_1", 0, 0]], "output_layers": [["dense_12", 0, 0]]}}}, "weightsManifest": [{"paths": ["group1-shard1of1.bin"], "weights": [{"name": "dense_12/kernel", "shape": [40, 12], "dtype": "float32"}, {"name": "dense_12/bias", "shape": [12], "dtype": "float32"}]}]}